8518 10
1 -1.8313124 -0.7816308 -0.11580254 -2.0289786 0.3324312 -2.3274162 -0.702186 -0.28839976 1.1228076 -0.2532024
1005 -0.7338007 -0.17372954 0.608291 -1.9221 0.3661466 -2.0699332 -0.42395875 -0.21348605 1.2099775 -0.36425927
1012 -1.6516963 -0.48941767 -0.28662896 -1.694067 0.2592157 -2.3949094 -0.56738436 -0.1932675 0.82133806 -0.07079471
103 -1.1059383 -0.41774127 -0.10419128 -1.1459067 0.0859005 -1.3860563 -0.4841426 -0.19822584 0.65057844 -0.051781986
110 -1.4428207 -0.43968272 0.0904716 -1.7478693 0.10733218 -1.4234097 -0.7225732 -0.5685002 0.62971956 -0.33790797
1103 -1.5599973 -0.3343886 -0.23090717 -2.0082326 0.42606065 -2.223141 -0.54794216 0.11315121 0.41541645 0.19007306
1117 -1.4698882 -0.4286606 -0.059430912 -1.6673709 0.28749996 -1.8285072 -0.4767512 -0.15109402 0.80246115 -0.08018546
1201 -1.4569007 -0.2999475 -0.1809824 -1.6034225 0.3282974 -2.2506626 -0.43289357 -0.32646543 0.9180849 -0.3906968
1215 -1.64116 -0.37889588 -0.17963532 -2.0599625 0.4475857 -2.0635111 -0.38198635 -0.09996877 0.904008 0.08178781
201 -1.8014205 -0.5217539 -0.17372236 -2.0129833 0.28898984 -2.3505163 -0.57454586 -0.28748736 1.1343107 -0.5421839
208 -1.3745928 -0.48533776 -0.27815017 -1.4666198 0.2621192 -1.8113136 -0.49367246 -0.21375698 0.7961382 -0.24677698
306 -1.6794969 -0.6409231 -0.13859473 -1.8084619 0.3073148 -2.368691 -0.4480714 -0.27678153 1.1447841 -0.2494364
313 -1.7253884 -0.56047094 -0.09519099 -1.9644759 0.26823342 -1.9194621 -0.68122375 -0.41509712 0.808235 -0.32730594
404 -1.4131162 -0.52140623 0.028284594 -1.5747671 0.346339 -2.213478 -0.2945779 -0.1496441 0.91382515 -0.18570516
411 -1.5988556 -0.46933308 -0.096628405 -1.9414951 0.27932033 -2.1071415 -0.5834202 -0.31515127 1.0756557 -0.27708423
502 -1.6673084 -0.57415897 -0.05754964 -1.8660339 0.34717205 -2.4487286 -0.5516632 -0.18641587 0.88034636 -0.24371633
509 -1.9977915 -0.63393176 -0.2169222 -1.9161698 0.27659217 -2.364423 -0.6524837 -0.23274772 1.0148274 -0.27776584
516 -0.8386049 -0.18235072 0.5208135 -2.1350687 0.4203395 -2.3061981 -0.3379794 -0.55064285 1.5168781 -0.5668935
607 -1.7262902 -0.5773932 -0.2792665 -1.9027361 0.33559394 -2.306662 -0.37670633 -0.15015203 0.9090897 -0.44656843
614 -1.8257123 -0.7227969 -0.030688222 -2.0591068 0.34416106 -2.314835 -0.5499188 -0.22912917 1.2153903 -0.29538852
7 -1.479902 -0.75503457 -0.17738716 -1.3690162 0.2653256 -1.7400067 -0.35599723 -0.10524075 0.90974116 -0.13222352
705 -1.8554887 -0.6657855 -0.160828 -1.8095987 0.2395842 -2.2943792 -0.50134593 -0.31322634 0.8571226 -0.2835719
712 -1.0850943 -1.258933 -0.037756328 -1.1669192 0.002396755 -1.2862129 0.27249694 -0.6666833 0.6998308 0.31292257
803 -1.5201865 -0.3078027 -0.019178059 -2.041722 0.45190388 -2.3872066 -0.48624033 -0.21821263 0.92891854 -0.09248181
810 -1.7437477 -0.2166314 0.04742728 -1.8602307 0.288659 -2.2419088 -0.6495311 -0.17267938 0.93979675 -0.35557082
817 -0.67312866 -0.012559665 0.6996215 -2.0181584 0.31129298 -2.0680695 -0.43094912 -0.3564036 1.2830434 -0.5398291
831 -0.8616654 -0.0009039775 0.69580835 -1.8573756 0.37767458 -2.2544394 -0.25401556 -0.47656754 1.3920219 -0.49059364
901 -1.7608944 -0.85645014 -0.16012125 -2.0964155 0.3327987 -2.4562614 -0.41774663 -0.35149473 1.2202095 -0.2261433
908 -1.6073349 -0.60377055 -0.08041364 -1.8786039 0.30867717 -2.1334822 -0.62104595 -0.30698684 0.7535046 -0.06088236
915 -1.6428405 -0.56579816 -0.29041135 -2.0787168 0.40821576 -2.144303 -0.5414824 -0.039361704 1.0437111 -0.16892686
1003 -1.7706872 -0.5186575 -0.27703887 -1.7203093 0.25890797 -2.2060363 -0.50498486 -0.16910191 0.96050507 -0.459477
101 -1.3961214 -0.48572227 -0.2738005 -1.616916 0.23600778 -1.4170941 -0.20972288 -0.2870496 0.9899476 -0.34750262
1010 -1.8803306 -0.5328018 -0.18181835 -1.9666747 0.33587736 -2.0608582 -0.71218866 -0.18319452 0.7449837 -0.12090608
1017 -1.6144274 -0.51947176 -0.126002 -2.000474 0.36588293 -2.1505535 -0.6878856 -0.1444702 0.6447883 -0.13822094
1024 -0.62470365 -0.679496 0.25249144 -1.3104998 0.23236397 -1.4692237 0.10264484 -0.62015426 0.79633677 -0.027011218
108 -1.379774 -0.34327486 0.107644446 -1.752219 0.35791025 -1.8176225 -0.40391508 -0.24868721 0.85684586 -0.28270248
1101 -1.5764892 -0.32681984 -0.21670564 -2.1663554 0.46376702 -2.119018 -0.51404005 -0.11696855 1.0038184 0.08575174
1115 -1.5581385 -0.44980288 -0.08865472 -2.0988655 0.4305436 -2.1647298 -0.6503757 -0.20489933 0.98765004 -0.110847935
1402 -1.6798902 -0.6285539 -0.09891795 -1.7776445 0.30340767 -2.2216213 -0.4173243 -0.2295181 0.6528137 -0.062174693
206 -1.4927828 -0.31304663 -0.07502963 -1.398245 0.31394815 -1.8185507 -0.31554723 0.09890333 0.75605476 -0.4489954
213 -1.8332756 -0.6628105 -0.16415943 -1.6493605 0.22978283 -1.9430634 -0.63523203 -0.5757536 0.85821486 -0.18694937
304 -1.5603864 -0.41442502 0.24662802 -1.9045905 0.39893058 -2.4581864 -0.44123474 -0.07044336 1.1419567 -0.33706844
311 -1.720845 -0.56949896 -0.03678292 -1.704502 0.2163957 -1.810383 -0.50255394 -0.6882643 0.83717823 -0.32227084
402 -1.730012 -0.54749876 -0.17343025 -1.944793 0.30620667 -2.3174977 -0.60026205 -0.33703303 1.0045561 -0.34649554
409 -1.7489171 -0.7317032 -0.15618132 -2.141796 0.29581535 -2.222619 -0.27956784 -0.319608 1.1570183 -0.36645967
5 -1.6495296 -0.43042237 0.08859586 -1.7459149 0.17132732 -2.0674152 -0.7921479 -0.6024146 0.76611906 -0.3728798
507 -1.396479 -0.5440538 -0.10180833 -1.766728 0.3584455 -2.4398856 -0.2930312 -0.32605895 1.0122191 -0.335375
514 -1.8095518 -0.6198073 -0.31165117 -2.004109 0.28496394 -2.399639 -0.5427944 -0.2415343 1.1327075 -0.4238363
605 -1.6535192 -0.55379486 -0.05232165 -1.8607278 0.34875658 -2.2766838 -0.5941972 -0.34708482 1.1402028 -0.35213563
612 -1.1558695 -1.076242 -0.21285664 -1.5739732 0.16340752 -1.5722064 0.0040867995 -0.5622709 0.39421874 0.5333203
703 -1.7982523 -0.5431277 -0.3088017 -1.9255701 0.28830826 -2.424655 -0.62108594 -0.29700023 1.0968995 -0.37533695
710 -1.879684 -0.561864 -0.1885077 -2.0036993 0.359488 -2.3459787 -0.49811044 -0.24722421 0.93169886 -0.2861882
717 -0.735297 -0.19224712 0.5515752 -1.9050136 0.36229134 -2.2060761 -0.3439125 -0.49121398 1.421365 -0.51916635
801 -1.7689797 -0.754561 -0.356923 -1.9009583 0.37930655 -2.3939605 -0.5166467 -0.115629494 0.8117969 -0.04519612
808 -1.7418638 -0.7379194 -0.20674476 -1.98752 0.37890178 -2.289067 -0.57011503 -0.23614536 0.66153026 -0.082501896
815 -1.397212 -0.4740951 -0.14951704 -2.015405 0.46798807 -2.125066 -0.41865194 -0.2663694 0.7238021 0.025184745
906 -1.6435734 -0.69984156 0.027581776 -1.9459643 0.36734873 -2.5537329 -0.42798164 -0.190096 1.158833 -0.27032122
913 -1.751275 -0.48822972 -0.06573207 -1.8063287 0.3274347 -2.0857315 -0.49357098 0.008719899 0.7541073 -0.1250324
1001 -1.6321514 -0.48940876 -0.160836 -1.7494686 0.37517196 -2.1962118 -0.45529 -0.24043338 0.79489344 0.0039758272
1008 -1.2061403 -0.26451913 0.13449565 -1.8818663 0.41145575 -2.0249004 -0.5967295 0.0701254 0.099167556 0.48171616
1015 -1.7045801 -0.31492993 -0.072968215 -1.8205909 0.36750123 -1.962052 -0.3962321 -0.29257244 1.105511 -0.16486
106 -1.4698986 -0.43480384 -0.19784723 -1.494036 0.2776252 -1.9349785 -0.4842013 -0.00032720462 0.8988656 -0.40856168
1106 -1.2154346 -0.9820308 -0.20141669 -1.5402297 0.1331774 -1.5627695 0.093615115 -0.837461 0.6440546 0.29076225
113 -1.7312797 -0.39212614 -0.04317818 -1.6412864 0.23031813 -2.0175495 -0.60325134 -0.6169479 0.76382387 -0.2476854
1204 -1.5111291 -0.7024704 -0.04989439 -1.9455649 0.3402382 -2.187728 -0.6080357 -0.43592045 1.0508295 -0.24585576
13 -1.4757813 -0.91629833 -0.04417042 -1.2071543 -0.02866719 -1.4072422 0.05160748 -0.95906687 0.67294335 0.3777041
1302 -1.5963515 -0.63938785 -0.2070953 -1.888887 0.29612383 -2.2189193 -0.61195356 -0.30863094 1.2402195 -0.40265623
1316 -1.6650985 -0.33742365 -0.22898154 -1.7783409 0.38850114 -1.9432809 -0.5200127 -0.005838806 0.82636803 0.08875658
204 -1.0348022 -0.32701552 0.03555817 -1.5096573 0.210339 -1.6290684 -0.670772 -0.07777603 1.0560333 -0.30643004
3 -1.4726737 -0.69924307 -0.24629334 -1.4032637 0.15284178 -1.7154527 -0.2840742 -0.10231018 1.0829262 -0.26540545
302 -2.0261211 -0.69109505 -0.11773938 -2.0478487 0.2877011 -2.4632688 -0.42501786 -0.10151087 1.0691882 -0.4937415
309 -1.2709514 -0.50786805 -0.24312116 -1.3894581 0.19293469 -1.4715208 -0.42150483 -0.2876153 0.6440575 -0.041331965
407 -1.6173205 -0.5754525 -0.081389114 -1.9118624 0.27034983 -2.3466508 -0.7559636 -0.34582043 1.1117929 -0.45782396
414 -1.6435263 -0.53980845 0.07748982 -1.8933421 0.35257548 -2.457003 -0.5278602 -0.34195045 1.0500423 -0.40691677
505 -1.702819 -0.7491509 -0.24749188 -1.7718877 0.21758577 -2.4828722 -0.5540254 -0.24348573 0.92715186 -0.45007822
512 -1.6452992 -0.47896594 -0.055461977 -1.8147117 0.31577316 -2.1390343 -0.559848 -0.29470444 0.9482612 -0.37916955
603 -1.4339594 -0.5160738 0.028006867 -1.8966999 0.30001226 -2.1500762 -0.4966645 -0.5464614 1.0401559 -0.59560955
610 -1.646455 -0.4223305 0.022920387 -1.766101 0.3863369 -2.297832 -0.43801472 -0.34767702 1.188681 -0.18510352
617 -0.64708316 -0.076066025 0.8299921 -2.0082345 0.28077367 -2.0950806 -0.2620749 -0.47032803 1.4812135 -0.5986302
701 -1.5287066 -0.75090605 -0.035599038 -1.9989402 0.34504074 -2.051256 -0.4514181 -0.2838566 1.0555891 -0.49839726
708 -1.7294989 -0.6452505 -0.22315997 -1.9703486 0.2814852 -2.2525573 -0.7313791 -0.12830049 0.9126742 -0.094825014
715 -1.7188842 -0.5912435 -0.13756762 -2.0135014 0.37187332 -2.2855074 -0.56241435 -0.27159053 1.0599905 -0.2540644
806 -1.4766482 -0.437485 -0.14594783 -1.8189479 0.2910253 -2.1983786 -0.5386338 -0.29282132 0.7313992 -0.11138891
813 -1.6811842 -0.6729989 -0.18349797 -1.9279323 0.37334526 -1.9850187 -0.6456349 -0.10595699 1.0282768 0.01759624
904 -1.6280899 -0.45901793 -0.06761286 -1.6312649 0.36000594 -2.3026187 -0.3076936 0.01695903 0.63608456 -0.32605076
911 -1.72835 -0.5931312 -0.24907906 -1.8854223 0.32859036 -2.3280125 -0.36835498 -0.39170134 0.966609 -0.41694608
918 -0.7246839 -0.22587977 0.68151855 -1.9816736 0.23469535 -2.2157576 -0.5249235 -0.53867984 1.3382419 -0.56928235
1006 -0.7425904 -0.095318265 0.626912 -1.7830698 0.3276691 -1.9085763 -0.4263084 -0.6232347 1.0344772 -0.42599967
1013 -1.315316 -0.5434765 -0.2404057 -1.9946078 0.37403047 -1.9807335 -0.60508627 -0.19857982 0.7514591 -0.04715225
104 -0.9842484 -0.31541598 0.0086617125 -1.287658 0.20332332 -1.4787982 -0.24023874 -0.017047575 1.1071007 -0.1750363
1104 -1.7344598 -0.587909 -0.013918221 -1.8938028 0.26710418 -2.29451 -0.76100624 -0.27334672 0.8820249 -0.22709075
1118 -0.7481932 -0.25396138 0.61503786 -2.067896 0.4373216 -2.2857893 -0.43446636 -0.4257621 1.2029014 -0.5325224
1202 -1.7798431 -0.7169073 -0.16741134 -2.008386 0.32682207 -2.3570085 -0.5698927 -0.30946356 0.84958184 -0.16811663
1216 -1.6470246 -0.34853688 -0.19575886 -1.904503 0.38819683 -2.3531454 -0.4694259 -0.06250976 0.6433138 -0.15026721
202 -1.2889436 -1.0092086 -0.252427 -1.1771094 -0.04631079 -1.4242575 0.34803846 -0.91810936 0.6340603 0.29054096
209 -1.1819853 -0.46597043 0.02546748 -1.5513126 0.29602656 -1.6102028 -0.5608669 -0.07450691 0.949693 -0.23395516
307 -1.2134384 -0.7465611 -0.34224656 -1.3787663 0.1291604 -1.3860716 -0.22634694 -0.3478698 0.62292373 -0.30182078
314 -1.6196711 -0.5065146 -0.3591841 -1.9682783 0.37722653 -2.306302 -0.51725477 -0.18904807 1.2587005 -0.16326733
405 -1.7399863 -0.71610177 -0.105570264 -1.9339546 0.27393657 -2.3776379 -0.68748707 -0.52053034 1.0743052 -0.24479339
412 -1.8340557 -0.53372824 -0.18952072 -2.112942 0.27971512 -2.311661 -0.58110696 -0.3289793 1.1585793 -0.40498823
503 -1.712138 -0.48819172 -0.16666009 -1.848382 0.2622597 -2.306693 -0.6412151 -0.19700728 1.163285 -0.40888575
510 -1.5593625 -0.5502995 -0.05924099 -1.9840516 0.2924754 -2.1671283 -0.6014066 -0.36609268 1.0928453 -0.4717661
601 -1.5821149 -0.5089763 -0.20648178 -2.0038774 0.3610887 -2.3789966 -0.4772781 -0.28553545 1.0445728 -0.29398608
608 -1.5348186 -0.50613946 -0.16766682 -1.8831966 0.32886302 -2.29599 -0.46932107 -0.26185408 1.0418873 -0.18386619
615 -1.5869954 -0.6502957 -0.17208143 -1.8225439 0.25777507 -2.2170928 -0.5481476 -0.36349916 0.98860425 -0.32292497
706 -1.6321938 -0.6403014 -0.07713392 -1.7529205 0.27690947 -2.2882886 -0.5799939 -0.29701737 0.9780634 -0.32849345
713 -0.8632155 -0.61772597 0.12697536 -1.3416299 0.2249472 -1.1855707 -0.22146717 0.09848684 0.85042614 0.13833377
8 -1.5358233 -0.6853758 -0.26857877 -1.5584545 0.23123692 -1.6239189 -0.3637498 -0.06708481 0.897416 -0.28591484
804 -1.4988403 -0.5525588 -0.043725926 -1.6851999 0.3315449 -2.180995 -0.4544414 -0.117263846 0.8323164 -0.093062304
811 -1.8008692 -0.40948716 -0.23413031 -1.8588046 0.3185398 -2.2181008 -0.5321178 -0.0073835645 0.8366835 -0.45120278
818 -0.7680435 -0.37382486 0.6581274 -1.9807864 0.33054748 -2.3343523 -0.25699013 -0.59126997 1.4794203 -0.5468915
902 -1.7260814 -0.32380924 -0.107178 -1.9759457 0.34637582 -2.3607364 -0.61639595 -0.04551504 0.9049134 -0.31144416
909 -1.8286365 -0.5564592 -0.079647794 -1.9693426 0.3209823 -1.9760914 -0.62587446 -0.38941228 0.9953995 -0.06555522
916 -1.4783562 -0.7109287 -0.29428893 -2.0522974 0.3796541 -2.1386857 -0.67747146 -0.13344552 0.7543378 -0.025574276
1004 -1.5091923 -0.23032936 -0.2943819 -1.7803954 0.3178973 -1.8582342 -0.5871545 0.03247781 0.81147027 0.16494595
1011 -1.6803559 -0.5929309 -0.19314191 -1.8210945 0.29540417 -2.2002795 -0.63818914 -0.18096188 0.6160708 -0.17854585
1018 -0.91073895 -0.15097742 0.6493309 -2.1728835 0.32888976 -2.160987 -0.3153873 -0.53176504 1.4839557 -0.5956017
102 -1.2103465 -1.4187251 -0.13338953 -1.5450703 0.017659923 -1.6055049 0.18283264 -0.91396236 0.8144586 0.11085378
109 -1.0660787 -0.45174813 -0.22406575 -1.1889989 0.17301473 -1.2633092 -0.20562233 -0.08893029 0.69096714 0.08724101
1102 -1.3254106 -0.59190047 -0.20928885 -1.6975895 0.3587979 -1.7129881 -0.22626348 -0.4820239 0.25739986 0.068138696
1116 -1.6552858 -0.5240485 -0.12514283 -1.9907718 0.42468718 -2.066713 -0.55490613 -0.024778018 0.86355746 -0.0022577539
1501 -1.583717 -0.53251046 -0.22508715 -2.091243 0.47585988 -1.9904089 -0.3792979 -0.14014445 0.66213214 0.020014217
207 -1.1306335 -0.46043718 -0.013223053 -1.5491943 0.28702432 -1.572345 -0.5353193 -0.030584801 0.9543703 -0.17493592
214 -0.9052793 -0.011927055 0.5990881 -1.9557843 0.40349334 -2.257673 -0.20150411 -0.50563884 1.4020519 -0.44918296
305 -1.7449483 -0.55950177 -0.11741088 -1.9942774 0.34867662 -2.3375456 -0.7673494 -0.29206014 0.90653425 -0.26882568
312 -1.6398708 -0.29399657 -0.0557272 -1.78818 0.2715941 -1.9140675 -0.59152305 -0.4067334 0.80502266 -0.2942566
403 -1.9477059 -0.7720448 -0.17303574 -1.8763071 0.32090053 -2.6145885 -0.54926014 -0.1703682 1.1139497 -0.22638828
410 -1.7772069 -0.67369884 -0.0693589 -1.7972186 0.23288685 -2.1034367 -0.40580893 -0.25185242 0.9663275 -0.320054
501 -1.8347822 -0.6105875 -0.10256837 -1.7620072 0.2849508 -2.2663655 -0.35418513 -0.26768994 0.9366128 -0.30134243
508 -1.7183614 -0.718968 -0.115531996 -1.7584914 0.20115255 -2.1260848 -0.54087186 -0.40806943 1.0153381 -0.40169322
515 -1.9058398 -0.79402596 -0.15405223 -2.0491369 0.2638859 -2.4898908 -0.4880147 -0.33453116 1.3364816 -0.36488426
6 -1.3470458 -0.6880757 -0.1911438 -1.6216322 0.26647842 -1.6659726 -0.4327829 -0.16870156 1.0810348 -0.2652187
606 -1.6040033 -0.409385 -0.02035962 -1.7103249 0.32463473 -2.3954024 -0.572348 -0.17675664 1.2190195 -0.5393343
613 -1.3115296 -0.5860408 -0.22643918 -1.961796 0.34251374 -2.3852365 -0.6746069 -0.28083363 0.59652066 -0.13023812
704 -1.5666378 -0.3767137 -0.0069586122 -1.8511953 0.3527311 -2.2834904 -0.5670178 -0.2784835 1.0820936 -0.37059608
711 -1.5361603 -0.61518323 -0.11210261 -1.6591641 0.2668451 -2.0261168 -0.48648125 -0.10875536 1.1521987 -0.46057844
718 -0.6456746 -0.31232363 0.8112892 -2.273055 0.29554823 -2.5497208 -0.37171942 -0.4896926 1.6303543 -0.7835804
802 -1.661743 -0.684959 -0.25353745 -1.9540997 0.3268082 -2.2953496 -0.6222332 -0.26657277 0.72798246 -0.11587573
809 -1.579199 -0.5787746 -0.18118769 -1.805503 0.2562033 -2.1887832 -0.49441776 -0.41548446 1.0489318 -0.51133454
816 -1.5749454 -0.80903906 -0.074391 -1.8914628 0.33185202 -2.1996996 -0.55845624 -0.33285794 0.8950033 -0.3246349
907 -1.3856388 -0.6139672 -0.10691017 -1.8681848 0.37377122 -2.1633306 -0.5587827 -0.19021912 0.72620654 -0.20495324
914 -1.6159745 -0.636707 -0.2829585 -2.0507123 0.35762426 -2.3115628 -0.46352124 -0.1502234 0.87164307 -0.1232351
1002 -1.626106 -0.5810331 -0.25047904 -1.8688204 0.40914997 -2.2226129 -0.5560327 -0.039410956 0.74738413 0.05685887
1009 -1.6687115 -0.44489315 -0.1826036 -2.0190604 0.4093373 -1.9677844 -0.58400667 0.14212191 0.52444255 0.12113864
1016 -1.557915 -0.37084383 -0.26350018 -1.9676503 0.42169166 -1.9905918 -0.4810053 0.16735439 0.47841594 0.1020401
107 -0.995526 -0.51666737 -0.13020009 -1.2239344 0.18291652 -1.3514901 -0.2704167 0.1252646 0.57467425 -0.06973418
1114 -1.4514188 -0.5983174 -0.08974829 -1.9398876 0.343682 -1.7930418 -0.5587809 -0.1901343 1.0923443 -0.32844934
1303 -1.6382835 -0.5208564 -0.0070445742 -2.0367224 0.45709246 -2.3096776 -0.427464 -0.2991329 0.70672184 0.014328884
1401 -1.6255735 -0.5169241 -0.0062853806 -1.7288907 0.32186672 -2.4466732 -0.500234 -0.24340136 0.7016411 -0.031095754
205 -0.9244597 -0.29373863 -0.053138744 -1.0963368 0.14787965 -1.4098954 -0.11394306 -0.105693884 0.44293272 -0.22372857
303 -1.5522254 -0.5358024 -0.3013715 -1.7683 0.35608834 -2.5645933 -0.45179403 -0.27448308 0.77793795 -0.40242544
310 -1.7681062 -0.74179137 -0.124802135 -1.8271374 0.18648987 -1.6287059 -0.49228656 -0.847737 0.784806 -0.44252786
4 -1.707142 -0.5530628 -0.06329952 -2.0406814 0.34500772 -2.4474957 -0.61973226 -0.29381168 1.0831841 -0.4390632
401 -1.8422092 -0.72597396 -0.4035843 -2.0320714 0.35248816 -2.4406166 -0.56243205 -0.27231655 1.0267283 -0.20690426
408 -1.7492213 -0.44335097 -0.07864295 -1.9645574 0.38166 -2.401256 -0.5412642 -0.21699648 1.0642265 -0.26830703
415 -1.6638507 -0.5012481 -0.044903196 -1.9847779 0.3559068 -2.2936761 -0.55600244 -0.10287598 1.1228071 -0.333446
506 -1.6187677 -0.46627757 -0.0959398 -1.7476096 0.31534147 -2.4456196 -0.34629813 -0.24941438 0.68807036 -0.27039063
513 -1.9245076 -0.7405545 -0.28343078 -1.8057432 0.27278993 -2.3382568 -0.48243615 -0.43157172 1.1454325 -0.4734371
604 -1.7392122 -0.42871857 -0.16247706 -1.7197323 0.26921162 -2.3399634 -0.4362716 -0.18932717 0.84051394 -0.30911967
611 -1.7092214 -0.6907134 -0.04333992 -1.6956354 0.26736757 -2.2082384 -0.39486867 -0.3594923 1.0443157 -0.3126747
702 -1.738111 -0.52345085 -0.17207631 -1.9117947 0.31710875 -2.2985542 -0.64644593 -0.25397483 0.98724085 -0.15687741
709 -1.7762886 -0.5435546 -0.20122048 -2.022125 0.33209097 -2.1970372 -0.46986413 -0.053408492 0.9974842 -0.33675352
716 -1.8241518 -0.5507013 -0.16247755 -1.8460879 0.32142243 -2.0455422 -0.43345216 -0.3558173 0.99363834 -0.2811928
807 -1.4797648 -0.44151327 -0.3217656 -1.7622005 0.29466256 -2.2681606 -0.55860025 -0.23591787 0.92896926 -0.33153123
814 -1.4175133 -0.3457678 -0.14993311 -2.0085013 0.41832548 -2.0614645 -0.61507523 -0.2406148 0.92469287 -0.18067937
905 -1.5083209 -0.58925223 -0.15831822 -1.8598956 0.37614053 -2.2695065 -0.58939296 -0.38678992 0.7756968 -0.1449168
912 -1.4691803 -0.4790923 -0.08492783 -1.723823 0.3307877 -2.025556 -0.41539723 -0.25148302 1.021681 -0.04856673
919 -0.62774986 0.21981922 0.692534 -1.8712189 0.35643506 -2.168848 -0.22244532 -0.37182605 1.3921994 -0.50375444
1007 -1.5437245 -0.58110094 -0.004291222 -1.9772687 0.31912085 -2.1270688 -0.72563803 -0.2853774 0.41768464 0.23186977
1014 -1.6298021 -0.69983655 -0.19244745 -1.913047 0.35826442 -2.1564572 -0.5095695 -0.2498454 0.8308642 -0.28142545
105 -1.2041153 -0.2972384 -0.1606623 -1.4168855 0.19335529 -1.5688288 -0.3977891 0.06831699 0.83183855 -0.3295896
1105 -1.6727009 -0.3824194 -0.21255167 -1.8257079 0.25987938 -2.3381875 -0.5978611 -0.282769 0.8232147 -0.093218416
1203 -1.5096002 -0.55401886 0.09517734 -1.6658628 0.2877936 -2.0860455 -0.57367975 -0.1570651 0.88662434 -0.09109151
1217 -1.443423 -0.64058506 -0.038221475 -1.9876199 0.40969533 -2.1616945 -0.6145876 -0.10941576 0.9890515 -0.21952645
1301 -1.5154126 -0.4577518 -0.016469503 -2.0595784 0.4186472 -2.4066288 -0.5318416 -0.1615756 0.99600273 -0.2843553
1329 -0.7747444 -0.27788198 0.46063045 -1.7549776 0.30087662 -2.2112532 -0.35953495 -0.41743904 1.1691358 -0.6756345
2 -1.7520078 -0.5369177 -0.22409754 -2.008145 0.32332528 -2.4556835 -0.55076087 0.007967004 1.0858933 -0.37125865
203 -1.3167698 -0.29337326 0.11120957 -1.4662687 0.22308758 -1.9582295 -0.59562975 -0.17910635 0.8498583 -0.5977825
210 -1.5181445 -0.53088075 -0.054507636 -1.6695865 0.13857906 -1.3846647 -0.62537664 -0.6320558 0.54371727 -0.37587214
301 -1.8764905 -0.53730375 -0.1928163 -1.9941825 0.33862987 -2.5184312 -0.6235514 -0.36562824 1.0909239 -0.42276528
308 -1.5359522 -0.38247535 -0.32173276 -1.2744476 0.21311773 -1.588122 -0.3174288 -0.10932885 1.0111464 -0.3202264
406 -1.7419528 -0.40161377 -0.18636476 -1.9197247 0.33374268 -2.3875117 -0.39303136 -0.32281828 1.0267122 -0.5419852
413 -1.7223039 -0.51182365 -0.030721845 -1.8464069 0.33582905 -2.4087884 -0.39599875 -0.33346537 1.2436614 -0.39986277
504 -1.703206 -0.562549 -0.13047303 -1.8345807 0.29366598 -2.2391553 -0.37732473 -0.38625255 1.038252 -0.37857717
511 -1.5513252 -0.47418213 -0.11603381 -2.052681 0.42893514 -2.3428586 -0.46889618 -0.1929487 1.0027033 -0.12795396
602 -1.7719711 -0.2715401 -0.3139679 -1.6472417 0.18620907 -2.4273896 -0.61826336 -0.24471335 0.99173266 -0.4723915
609 -1.7447221 -0.6254662 -0.19282363 -2.0370262 0.35030854 -2.3706775 -0.68833315 -0.40888008 0.94899845 -0.43438685
616 -1.8137236 -0.52896523 0.019421097 -1.7363088 0.33222604 -2.33713 -0.44398567 -0.29447645 0.95668244 -0.4530764
707 -1.5127112 -0.45934966 -0.09720479 -1.8342646 0.30711433 -2.1632535 -0.6171792 -0.24293317 0.9612534 -0.19709538
714 -1.594458 -0.453073 -0.15460543 -1.970735 0.3276186 -1.9890583 -0.7246666 -0.020012867 0.83112526 -0.16184686
805 -1.6672822 -0.6876796 -0.28384975 -1.8653095 0.2536613 -2.394103 -0.5711682 -0.33382317 1.0205679 -0.3774523
812 -1.6621233 -0.47604358 -0.21476778 -1.9543936 0.3726315 -2.046562 -0.42163903 -0.23686334 1.008544 -0.3662048
819 -0.6726939 0.053006355 0.5815316 -1.6192186 0.24702169 -1.8047457 0.02344261 -0.40276086 1.2283767 -0.5587231
9 -1.1010619 -0.14995411 -0.048962273 -1.4209858 0.26752424 -1.4452417 -0.37006944 0.009577066 0.6083202 0.053023774
903 -1.5002798 -0.6249167 -0.040219583 -2.009036 0.42527997 -2.3836544 -0.5082971 -0.085412584 0.94695336 -0.18013692
910 -1.8525023 -0.4987838 -0.23498726 -1.7575613 0.28679985 -2.210725 -0.4266636 -0.2496428 0.919224 -0.3499354
917 -0.7636859 -0.26701742 0.5988908 -2.0919232 0.3386483 -2.1044548 -0.2568183 -0.72723114 1.5549161 -0.5842671
10 -1.3281394 -0.44121325 0.10735983 -1.517412 0.16335943 -1.4371414 -0.48754802 -0.7259868 0.6177626 -0.38143867
11 -1.5106217 -0.38519412 0.014635663 -1.3388838 0.033499584 -1.4602437 -0.6141851 -0.66002375 0.51083213 -0.2865597
12 -1.031462 -1.1960518 0.028444478 -0.9219652 -0.647444 -1.1913167 0.4069409 -1.1847804 0.0706566 0.55959237
1135 -0.046103716 0.5443925 0.4643803 -1.2385342 -0.35553092 -0.79848075 1.0947365 -0.86567897 0.63018644 0.23826338
1205 -0.7532526 -0.9998345 -0.18549667 -1.1119672 -0.5245974 -1.0845169 0.8525977 -1.0119289 -0.034844205 0.79038626
4908 -1.0984668 -1.1855348 -0.75812006 -1.443821 -0.74455035 -1.1729195 1.1944532 -1.3643601 0.11325396 0.3855042
5104 -0.84926194 -1.2682601 -0.3176436 -0.9334187 -0.8768407 -1.3602911 0.9909353 -1.3456604 -0.06261756 0.63359267
5202 -0.88888395 -1.5230635 -0.22167896 -0.7561285 -0.90190166 -0.92461884 0.7183906 -0.9258329 0.07758372 0.53038746
5825 -0.7516156 -1.4517428 -0.43262762 -1.137758 -0.7911047 -1.430326 0.7453047 -1.2137108 -0.26954418 0.67414224
6210 -0.27056384 -1.2504609 -0.46478432 -1.6535034 -0.76147884 -0.78793657 1.0661095 -1.3056264 0.38945028 1.0696874
7302 -1.0792234 -1.0630419 -0.49515337 -0.35023144 -1.3872801 -0.68987364 1.1570545 -0.86734396 -0.37745553 0.7108655
7603 -1.0976971 -1.3334718 -0.6307043 -0.41641942 -1.3761519 -0.78072846 1.28019 -0.9322995 -0.30560854 0.6574075
7701 -1.017664 -1.4755179 -0.34402668 -0.994595 -0.98421663 -1.261439 0.8966958 -1.3038138 -0.08351317 0.62660354
112 -1.2706863 -1.006642 0.008086289 -1.1442388 -0.15481058 -1.1610906 0.21235052 -0.97740656 0.47301114 0.22988267
1420 -0.28197676 -0.7064602 0.5731266 -1.2202332 0.012549935 -1.3480002 0.39360875 -1.085456 0.9075258 -0.07877442
2218 -0.78703624 -1.3311498 0.09752115 -1.4468561 -0.36345425 -1.44055 0.47961563 -1.0926181 0.03980815 0.8524911
2904 -0.7153114 -1.1129599 -0.058451675 -0.95243037 -0.6106324 -1.0120465 0.74594116 -1.0149531 0.18515518 0.5969848
3205 -0.6653417 -1.4101037 -0.38382104 -1.030412 -0.8756631 -1.3177017 0.96665907 -1.3564005 0.1159669 0.7133578
3604 -1.1078166 -1.3986759 -0.74395454 -1.2400683 -0.7137147 -1.2575212 1.0855715 -1.0342956 -0.1143138 0.4993915
4605 -0.55804634 -1.0376346 -0.44407842 -1.2227545 -0.80444115 -0.8902564 1.0886662 -1.1971209 -0.121942684 0.6753514
4808 -0.9988878 -1.3492594 -0.7604647 -1.4083906 -0.99366707 -1.1291525 1.3137949 -1.5231434 0.0031061063 0.45409936
5102 -0.91609293 -1.3097986 -0.2275775 -1.1368345 -0.68367314 -1.41911 0.7655159 -1.3998932 0.211426 0.7753149
6110 -0.12204373 -1.4064878 -0.3301192 -1.6949499 -0.88266575 -0.66708356 0.95855063 -1.1882075 0.4147619 1.3582535
6509 -0.19033937 -1.2126902 -0.46724474 -1.5628189 -0.78507495 -0.66113925 1.0500971 -1.1461116 0.1601815 1.0643083
7601 -0.59691936 -1.3688244 -0.10448676 -0.8798617 -0.854217 -0.90553844 0.9839141 -1.0221388 0.28394097 0.769743
1229 -0.28503132 -0.74959725 0.5349441 -1.3465673 0.10437893 -1.3977973 0.42121103 -0.95228666 0.80618876 0.07262212
1306 -0.77808297 -1.3701917 -0.17868485 -1.2907571 -0.90717554 -1.0584947 0.6873639 -1.2677466 -0.20142788 1.1143285
2020 -0.6529251 -1.0089493 -0.22863767 -0.81275207 -0.64497405 -1.2018658 0.22329971 -0.8468571 -0.5554575 0.7094893
2118 -0.5511191 -1.0850658 -0.24128252 -0.9815472 -0.54218733 -1.2614943 0.59709877 -0.88799244 -0.14262371 0.6324509
3105 -0.51936674 -1.3614286 -0.46754724 -0.9469389 -0.7978373 -1.1547905 0.350992 -0.8282376 -0.41048077 0.810495
3504 -1.0306076 -1.2248086 -0.763887 -0.95770353 -0.87003464 -1.2795706 1.1508211 -1.2760401 0.012024633 0.49109572
5114 -0.5485176 -1.4393349 -0.67039806 -1.4233311 -0.79343265 -1.018887 0.7975152 -1.1796645 -0.02986969 0.7230937
5303 -0.82003236 -1.5206895 -0.33310178 -1.1222 -0.7799688 -1.0646462 0.9630548 -1.0443214 0.16015147 0.9186762
5401 -1.1729118 -1.5877606 -0.49352607 -1.0538882 -0.9159022 -1.3121974 0.8590799 -1.3618076 0.026196448 0.6753341
7403 -0.89183867 -1.4871248 -0.61342686 -1.2088772 -1.1227231 -0.9369959 1.1356016 -1.3756021 -0.029959057 0.73300993
7501 -0.91370946 -1.4415635 -0.34405988 -0.57719886 -1.0132334 -1.1048393 0.97076917 -1.0984191 0.04707138 0.54877913
7704 -1.1095161 -1.1617366 -0.15216574 -0.13382792 -1.4300919 -0.7725578 0.98640144 -0.83327335 -0.2074474 0.62745756
7802 -1.0992794 -1.2884861 -0.44083223 -0.14491947 -1.3369926 -0.929682 0.91702276 -0.741763 -0.2871525 0.7419631
1206 -0.797302 -1.0580562 -0.38535845 -0.87738127 -0.6158857 -1.2548805 0.7364044 -0.97631496 -0.15928671 0.59964335
1724 -0.7093132 -1.1228868 -0.33988804 -0.86606073 -0.58168906 -1.4014093 0.8684584 -1.0053756 0.027343899 0.5654778
2025 -0.6537275 -1.2718039 -0.3688692 -1.0246447 -0.67525476 -1.4451613 0.6654507 -1.049093 -0.21433528 0.67585456
2130 -0.42025277 -1.0324713 -0.16990232 -0.94861317 -0.6592955 -1.4096917 0.8748453 -1.2120446 -0.048375968 0.66650707
4909 -1.0728214 -1.1906075 -0.48469847 -0.8535339 -1.0109164 -0.91885567 1.0936222 -1.1800112 0.05682395 0.6803037
6610 -0.2786452 -1.1287107 -0.61300105 -1.5070215 -0.87367326 -0.7748823 1.072185 -1.1578082 0.14397962 1.1694102
7205 -1.0534263 -1.2395127 -0.74756706 -1.4675559 -0.77492756 -1.0781741 1.1573191 -1.4084308 0.10027884 0.5684304
7303 -1.113733 -1.0053852 -0.6456348 -0.38362512 -1.3361528 -0.6223682 1.0224681 -0.97696227 -0.3707639 0.5665567
7401 -0.79469126 -1.1837649 -0.44561812 -0.95107603 -0.7340269 -0.8066207 1.14964 -0.81198967 0.34070182 0.6034195
7604 -0.69336087 -1.1514516 -0.40382388 -1.0166035 -0.7046895 -0.8431571 1.1116767 -1.1127207 0.5228437 0.47085607
7702 -0.938416 -1.2836022 -0.46437874 -0.12172747 -1.5456033 -0.9318621 0.85625196 -0.88081056 -0.2955168 0.63680464
7905 -1.0420724 -1.3348281 -0.37460274 -0.17649347 -1.5100919 -0.9344444 1.0432056 -0.80707854 -0.41283032 0.6587679
8101 -1.089156 -1.016365 -0.25827578 -0.13198072 -1.3497 -0.86606777 0.9758099 -0.8157554 -0.30121735 0.798885
2030 -0.6108047 -1.3172609 -0.2159786 -0.9642516 -0.7475861 -1.509755 0.6830338 -1.1270734 -0.2764764 0.6719572
2905 -0.6299011 -1.0850828 -0.17714761 -1.0713135 -0.44450665 -1.2758833 0.7853189 -1.0062884 -0.0085347975 0.49241155
3409 -0.4890194 -1.313098 -0.28780663 -0.91904163 -0.816887 -1.3967043 0.70788556 -1.1911188 -0.2232761 0.6212699
4704 -0.6801578 -1.0774475 -0.44857603 -1.1945999 -0.84032774 -0.695964 1.2083191 -1.2057902 0.041234408 0.545342
4809 -0.96775186 -1.215182 -0.6475683 -1.2108008 -0.9054105 -1.0218258 0.99993896 -1.4167309 0.017472936 0.5665495
5103 -0.8463221 -1.3906997 -0.37736613 -0.9741566 -0.87641585 -1.156082 0.7153546 -1.1823614 0.019780628 0.8932079
6510 -0.1630183 -1.0401137 -0.50258076 -1.560938 -0.85960263 -0.61789906 1.2242911 -1.1647882 0.25092685 1.1651129
7301 -0.6483215 -1.2098 -0.41373894 -1.0227798 -0.847083 -0.6524047 1.2691413 -1.0151057 0.32883397 0.33052334
7602 -0.8238663 -0.96083456 -0.21622439 -0.3111164 -1.21677 -0.48670965 0.994974 -0.7159556 -0.028259166 0.6834218
7805 -1.1233728 -1.1758771 -0.38018137 -0.18224777 -1.4841471 -0.7849497 1.0008416 -0.70436627 -0.29654288 0.8024334
8001 -0.97305244 -1.1154515 -0.70784956 -0.18642299 -1.3628635 -0.83756113 1.0837142 -0.4911115 -0.34741735 0.80139965
3008 -0.63958555 -1.3631353 -0.04979534 -0.73204064 -0.79688185 -0.99794495 0.81960505 -0.7566626 0.025873462 0.7896784
4303 -0.44554222 -0.77429265 -0.12722403 -1.0753994 -0.6532912 -1.0711668 1.4469713 -1.1819297 0.25433293 0.5403021
4604 -0.6762208 -1.0877676 -0.62184745 -1.3160532 -0.6925523 -0.88317865 1.0962865 -1.1228259 0.19597153 0.79629415
5101 -0.99730486 -1.4870298 -0.3148236 -1.2390187 -0.723979 -1.3354232 0.83018595 -1.376446 0.34474877 0.79159886
7404 -1.1620837 -1.2385234 -0.5849334 -1.0350397 -0.8515628 -0.9931731 1.1762849 -1.2285025 0.17771 0.5525703
7502 -0.6121317 -1.307071 -0.3994403 -0.9607575 -0.8151963 -0.82137424 0.9914506 -0.9194827 0.16938452 0.69392276
7705 -1.2076008 -1.2133904 -0.27235466 -0.14086574 -1.217653 -0.6972849 0.87818116 -0.71863127 0.006693825 0.6245038
7901 -0.9065577 -1.1832433 -0.36730504 -0.11239493 -1.6044643 -0.94607013 1.0395881 -0.88678473 -0.31703627 0.8215647
1228 -0.28514874 -0.69523793 0.4714858 -1.3268266 0.068155296 -1.5140224 0.29049602 -0.9729087 0.76314545 -0.015805775
1235 -0.17816842 0.3930196 0.34558555 -1.2061291 -0.1883 -0.94658655 1.0201353 -0.9367439 0.4884489 0.2677289
1725 -0.6065178 -0.9504001 -0.24181204 -0.9393044 -0.35601994 -1.1470938 0.559217 -0.55312747 0.012911811 0.61335564
2019 -0.52550876 -1.2511647 -0.40235937 -1.1177438 -0.7935085 -1.4558846 0.7666113 -0.9832645 -0.5763148 0.9275239
2026 -0.58647466 -1.0660917 -0.31190324 -0.9816965 -0.5698237 -1.3572887 0.62266916 -0.96652514 -0.35250795 0.7433513
2705 -0.7717171 -1.1944349 -0.055727094 -0.93258834 -0.5186905 -1.4396929 0.6822012 -1.2787364 0.35803467 0.51370174
2908 -0.41972205 -1.0942864 0.06673865 -0.95714533 -0.44096497 -1.1093817 0.6051118 -0.7971606 0.15337785 0.5773178
5302 -0.8077807 -1.4833233 -0.20117766 -1.0038608 -0.63834614 -0.7985111 0.5356331 -0.9013082 0.28144658 0.583714
5904 -0.7300063 -1.137814 -0.25200522 -1.2031696 -0.5541814 -1.2023184 0.9960813 -1.2170556 0.1797934 0.6630205
7304 -1.0479851 -1.2494498 -0.67834747 -1.5452143 -0.7324585 -1.0444804 1.1911718 -1.3625096 0.12770636 0.4455556
7402 -0.9165824 -1.208769 -0.419428 -0.42415625 -1.2907565 -0.52899253 1.1950204 -0.7815875 -0.11067512 0.5293862
7703 -1.050539 -1.4842527 -0.41015095 -0.34026626 -1.7158142 -0.7257645 1.0780003 -0.90478164 -0.32433343 0.91585404
7801 -1.2434621 -1.3729696 -0.27388185 -0.15294434 -1.5186838 -0.7682701 0.8090858 -0.9073929 -0.2420543 0.6688042
114 -1.624511 -0.5657373 -0.065689676 -1.866985 0.2741301 -2.2089818 -0.54068375 -0.49516153 0.97952825 -0.35718173
1142 -0.5862063 0.94796574 0.39297542 -1.7027578 0.27096766 -1.5276667 0.21408796 -0.3575435 1.1192863 -0.3470642
315 -1.7729249 -0.5804689 -0.138876 -2.1412692 0.39309916 -2.5825036 -0.5958979 -0.2982875 1.2332987 -0.20693764
1824 -1.2859066 -0.6142836 -0.17386678 -1.6072521 0.3015438 -2.266189 -0.3885304 -0.23991682 0.5516912 -0.19027887
1129 -0.82266915 -0.08241896 0.73222464 -1.3380885 0.14815389 -1.7521447 -0.45833948 -0.38398883 1.0037293 -0.6417621
1143 -0.5935357 1.0467374 0.28019458 -1.754174 0.22368886 -1.510285 0.19403812 -0.4653672 1.0111943 -0.33471867
416 -0.78478295 -0.28760278 0.36629087 -1.9222964 0.3312329 -2.2668297 -0.4449452 -0.48508224 1.3964871 -0.47402686
316 -1.863779 -0.8343973 -0.15880512 -1.8943728 0.3030348 -2.3376508 -0.63666296 -0.26907936 1.0817344 -0.035937957
27 0.039669435 0.14277506 1.1928306 -1.79948 0.027177704 -2.0174072 -0.025415873 -0.39913502 1.6620834 -0.5967408
1020 0.035875663 0.4030538 1.1539032 -1.6757796 -0.10404928 -1.9449921 -0.061290126 -0.5800297 1.4786257 -0.47198954
1027 -0.0017940485 0.0020988695 1.0155694 -1.805032 0.12487749 -1.995345 -0.028510667 -0.49950036 1.4014904 -0.50332505
1034 0.25657427 1.157339 1.0308237 -1.9935056 -0.27869833 -1.6122122 0.5919334 -0.6756947 1.3753752 -0.56677204
1125 0.11921067 -0.11969229 0.97205627 -1.7727618 0.10148624 -2.1486542 -0.1309568 -0.52902746 1.2632732 -0.5678772
1132 -0.12990002 -0.042913586 0.95874155 -1.7372891 0.07846731 -2.016484 -0.008881065 -0.57737786 1.4112753 -0.73750776
1223 -0.054946445 0.105197 0.84908456 -1.8204861 0.22670436 -2.1210604 -0.1560038 -0.48092172 1.0750678 -0.44541633
1230 0.05065224 -0.0651113 0.9450526 -1.9049965 0.15271989 -2.1899269 -0.24498785 -0.5155399 1.3848792 -0.40377966
125 0.077579826 0.09450703 1.2865357 -1.8352623 -0.18342999 -2.3274949 -0.31291142 -0.37113532 1.7419926 -0.8016963
132 0.053558376 0.3634404 1.1687573 -1.9439242 0.0048708804 -1.8869363 -0.1303304 -0.5655119 1.313754 -0.55642086
1321 -0.28265214 0.048156057 1.2034427 -1.9186891 0.21147738 -1.9099586 -0.18041898 -0.39667186 1.3257601 -0.2711893
1328 0.21031557 0.09430614 0.97449577 -1.8266811 0.14720388 -1.9094244 0.031847905 -0.409856 1.1200007 -0.5890125
1419 0.17404683 -0.056406975 1.0193803 -1.8232253 0.19428277 -2.0219297 -0.26599348 -0.33026916 0.9963213 -0.18358682
1426 0.24990031 0.0064613847 1.0840008 -1.3600891 -0.06713821 -2.1941066 -0.09640838 -0.52783746 1.3779219 -0.43680748
223 0.057139475 0.053915765 1.2416855 -1.8961618 1.9569037e-05 -2.451974 -0.06284835 -0.5078945 1.630468 -0.6626797
230 -0.0025151314 0.54607695 1.5207872 -1.8442026 -0.14142208 -2.0534263 0.04416204 -0.6085426 1.4849483 -0.7310663
237 0.20086367 0.331984 1.3448541 -1.9286695 0.013852625 -2.157616 -0.022310903 -0.6039913 1.468995 -0.46761295
32 0.05152229 0.2783284 1.2039905 -1.8456204 0.0475442 -2.0675251 0.009207387 -0.48718062 1.5430504 -0.52098364
321 -0.15636876 0.16570741 1.3177103 -1.7258844 -0.021191783 -2.0765247 -0.25700274 -0.53955036 1.6739839 -0.5819817
328 -0.05828361 0.32798427 1.2678895 -1.8078932 -0.00011185135 -2.038501 0.05737757 -0.4494511 1.5497683 -0.6965693
335 -0.024471546 0.46253106 1.2560357 -1.8634952 -0.047719397 -2.0491023 0.118024915 -0.56701213 1.6048392 -0.8372947
419 -0.04602783 0.12914322 1.1450636 -2.0461652 0.07495536 -2.1700754 -0.11020289 -0.541551 1.664002 -0.5662117
426 0.0077225612 0.522011 1.30316 -1.8973954 -0.09432275 -2.0242045 -0.044614963 -0.4642287 1.5161222 -0.72656214
433 -8.444747e-05 0.45352763 1.0016391 -1.7662245 -0.17076509 -1.7698132 -0.035115723 -0.6755811 1.5018688 -0.6829381
517 0.11332416 0.2638262 1.3133197 -1.7735195 -0.095020466 -2.1241853 0.01809698 -0.54230404 1.5629338 -0.6486437
524 0.18190974 0.18050766 0.98347265 -1.7042589 -0.08086908 -1.9243889 0.0016640876 -0.5594877 1.658777 -0.37486893
531 0.14832357 0.35573602 1.2293471 -1.7430274 -0.015768098 -2.1513817 -0.110777065 -0.49374667 1.4080336 -0.51192296
622 0.04577732 0.60740685 0.92392933 -1.5319457 -0.08126209 -1.661687 0.09258889 -0.59494466 1.2587863 -0.48100215
629 0.28826925 0.38264802 1.0693935 -1.7900267 -0.09502869 -1.9813191 0.024963161 -0.5096718 1.4254577 -0.6649495
636 0.49746957 1.1562344 0.98399293 -2.0219343 -0.31773913 -1.6146568 0.6156939 -0.4709358 1.4910929 -0.42215255
720 -0.105638534 0.39675853 1.1571273 -1.8162429 -0.009612162 -1.7536341 0.073767155 -0.58819586 1.443099 -0.4486151
727 0.15607232 0.4347981 1.174209 -1.8384706 -0.041804124 -1.9746171 0.030476373 -0.32187536 1.508393 -0.48253468
734 0.09813837 1.0045193 0.9225287 -1.8233756 -0.104975045 -1.775839 0.34520265 -0.39677933 1.360848 -0.62268037
825 0.0496875 0.28867894 1.3383367 -1.9629351 -0.18143746 -1.9875153 -0.061697748 -0.50368047 1.7551343 -0.7867149
832 0.025945462 0.26971275 1.4136739 -1.8857864 -0.07778572 -2.27303 -0.02759542 -0.4890775 1.5821723 -0.76494324
923 0.15379785 -0.048835266 1.0578284 -1.9642612 0.1504803 -2.2639227 -0.29186264 -0.28528506 1.278381 -0.41961175
930 0.217383 0.30265164 1.2402905 -1.9162859 0.0026344662 -2.104311 -0.116635405 -0.55168587 1.2834462 -0.4113021
1025 0.22921753 0.036540706 1.0512956 -1.7413865 0.040371377 -2.1405113 0.047709662 -0.2885988 1.1664615 -0.50662947
1032 0.36879036 0.092965454 0.8886108 -1.6959189 0.05547517 -2.0164635 -0.09524495 -0.29547495 1.2816823 -0.33853695
1123 0.038237005 0.22660807 1.0145072 -1.7390554 0.09394241 -2.0782895 -0.14982894 -0.5518531 1.2152083 -0.44923016
1130 0.23193699 -0.09714609 1.0072249 -1.6380179 0.008874962 -2.0665421 0.034856133 -0.645858 1.0631257 -0.31390205
1221 -0.031423848 0.09619459 0.9378524 -1.7036254 0.1783486 -1.9645602 -0.40413907 -0.21064174 0.7613429 -0.33890176
123 0.009935995 -0.04340739 1.166818 -1.8150818 0.053455185 -2.0860217 -0.21330842 -0.5733536 1.3206428 -0.5939435
130 -0.008934773 0.32978746 1.0883813 -1.6850446 0.04416196 -1.6639448 0.09804532 -0.32759988 1.3734555 -0.18687177
1319 0.39561042 -0.09918155 0.9175759 -1.8048769 0.13832542 -1.9569652 -0.23543204 -0.27887028 0.8196824 0.091463104
1326 0.2161865 0.17169596 1.1028425 -1.6915852 -0.03920849 -2.0028565 -0.10289306 -0.39166662 1.4659486 -0.44407603
1333 0.17053793 0.4733866 0.8776129 -1.6570165 -0.0038617551 -1.6350125 0.43778303 -0.6494943 1.0995146 -0.26870778
1424 0.32803854 0.14648277 1.1445321 -1.8253441 -0.0503339 -2.155951 -0.20653552 -0.5909483 1.2736455 -0.57720965
1431 0.14212027 -0.12109257 0.92552644 -1.6972113 0.14040829 -2.0881827 -0.08345178 -0.60128766 0.88004875 -0.4075898
221 -0.08974764 0.10648919 1.1113325 -2.0289152 -0.079153456 -2.0708783 -0.31179196 -0.6180105 1.6688384 -0.9118279
228 0.090080075 0.17109297 1.2635792 -1.7930889 0.012767835 -2.0193624 0.021671383 -0.6131646 1.2241107 -0.42344415
235 0.044873785 0.07046597 1.4155573 -1.8413644 -0.08111265 -2.227716 -0.08238784 -0.7404879 1.6310139 -0.681522
30 -0.041803658 0.37417588 1.2596976 -1.9382287 -0.015118459 -2.3392117 -0.07123179 -0.39984223 1.5710874 -0.73303366
319 0.1966826 0.2172194 1.5415093 -1.8281362 -0.20523837 -2.104251 -0.078694515 -0.45994645 1.6586558 -0.54636025
326 0.16261515 0.31198522 1.3592081 -1.9941573 -0.039289717 -2.1684813 -0.012887782 -0.57208025 1.5872533 -0.4888202
333 -0.008781831 0.22757873 1.0350305 -1.8180261 0.037307326 -2.1509535 -0.42410907 -0.60618705 1.4720029 -0.4188397
417 0.0063547674 0.30988812 1.4297903 -1.6671065 -0.18900588 -1.9639598 -0.07566013 -0.57991743 1.5868491 -0.51653755
424 -0.16194578 0.17178558 1.1538833 -1.7368916 0.10123721 -1.9795684 -0.016951893 -0.41491932 1.5715653 -0.34652925
431 0.11270556 0.23157877 1.3454835 -2.0045936 -0.13550286 -2.0250406 -0.018141935 -0.71886814 1.6431247 -0.7061455
522 0.33427605 0.46222994 1.1324117 -1.8025867 -0.03559841 -2.0528388 -0.10318034 -0.43938825 1.4398222 -0.35182834
529 0.12446936 0.5281081 1.5138869 -2.0095143 -0.21766154 -1.949451 0.10658992 -0.5831569 1.5630581 -0.69050145
536 0.296075 1.1923583 1.075502 -2.136856 -0.15765676 -1.7218722 0.46626043 -0.57103616 1.3219573 -0.3534644
620 0.07258283 0.20263968 1.3251066 -1.8130721 -0.023288215 -2.013871 0.03601174 -0.502896 1.4649538 -0.47830904
627 -0.040326633 0.47416997 1.1511453 -1.7649664 -0.008356714 -2.150885 -0.046419382 -0.33770844 1.6253638 -0.53756464
634 0.06940409 0.38076127 1.4333887 -1.7582386 -0.032612607 -2.1593423 -0.20656167 -0.4822654 1.4793668 -0.51359564
725 0.01619307 0.22600603 1.3989899 -2.0362134 -0.024428846 -2.1340213 -0.06223825 -0.43575704 1.5377048 -0.739595
732 -0.14029263 0.47624037 1.4131187 -1.993328 -0.035871863 -2.1075885 -0.06460208 -0.3980642 1.5285674 -0.7455448
823 0.06992352 0.29294744 1.342614 -1.8732744 -0.002233266 -2.0210633 -0.056418214 -0.55208254 1.2545061 -0.69821674
830 -0.045557607 0.09444706 0.99666953 -1.808528 0.03960191 -2.0883172 -0.03105065 -0.54951197 1.5626206 -0.6167636
921 0.15639918 0.28099176 1.1230342 -2.0005422 -0.103124656 -2.0090132 -0.060584754 -0.6043802 1.7198917 -0.68562573
928 0.26662177 0.35181716 1.478543 -1.9476929 -0.15026437 -1.9593734 0.03769606 -0.49085087 1.6605561 -0.4337264
935 0.36285782 1.3220905 0.9271973 -1.9593183 -0.31102842 -1.6922126 0.51447606 -0.68324995 1.3326495 -0.4246868
1023 0.14748861 0.38296163 1.3972251 -1.853242 -0.11986597 -2.0085154 -0.17604004 -0.57849926 1.48594 -0.6329929
1030 0.038885713 0.05223092 0.9067674 -1.6673455 0.15084484 -2.028561 -0.016318412 -0.40245494 0.9738141 -0.3646975
1121 0.23654093 0.42125145 0.9104063 -1.5489722 -0.0031967303 -1.5182744 -0.031556137 -0.45952567 0.96563447 -0.24314898
1128 0.14340656 -0.19884107 1.0050148 -1.8051639 0.056865662 -2.1672337 -0.16748829 -0.7004983 1.3381281 -0.6243258
1219 0.10641607 0.12881829 1.3518561 -1.9726177 -0.05720264 -2.2314959 -0.16239573 -0.61735374 1.641026 -0.5494767
1226 0.23805138 0.079920076 1.1016538 -1.824154 0.0141479885 -2.2690895 -0.07699469 -0.57890254 1.1500735 -0.5544827
1233 0.24374633 1.0546526 0.8307671 -1.8869497 -0.12154067 -1.612568 0.28066432 -0.44278917 1.2866819 -0.4037355
128 0.34167522 0.20507589 1.2647132 -2.0259001 -0.037556313 -2.2573686 -0.00020979511 -0.5516709 1.7432712 -0.5673795
1324 0.0065980353 0.31967157 1.0393423 -1.7193255 0.054199886 -2.0585308 -0.0038975258 -0.598001 1.1592195 -0.55200815
1331 -0.24986745 -0.1783579 0.86991173 -1.7391567 0.18500882 -1.9635327 0.0906887 -0.3767139 1.1848183 -0.3212343
135 0.3382709 0.3343694 1.0205019 -1.8204722 -0.11551455 -1.6802714 0.0222895 -0.54840654 1.6397963 -0.42605478
1422 0.24405147 -0.09220169 0.9761876 -1.9823569 0.17981073 -2.1888049 -0.17430243 -0.26456848 1.2033149 -0.31141788
1429 0.09040971 -0.06543249 0.9530747 -1.7016761 0.1379031 -2.269279 0.09110057 -0.35405546 1.3301433 -0.49634543
226 0.12352085 0.40287545 1.3652359 -1.8912126 -0.04250858 -2.0694997 0.035516348 -0.62525773 1.4635727 -0.55086434
233 0.17007577 0.25293255 1.3525248 -1.8964211 -0.035308354 -2.1491835 0.08799213 -0.4499963 1.5646527 -0.5053714
28 0.13248827 0.2925308 1.1412771 -1.9580069 -0.051363397 -2.182155 -0.2713982 -0.56309825 1.5336993 -0.68348897
324 0.08849549 0.3864676 1.350969 -1.8834689 -0.09733592 -1.9151067 -0.2072894 -0.35325056 1.4660051 -0.34043562
331 0.16617762 0.40765435 1.5045495 -1.6239905 -0.22330703 -1.9460683 0.21580902 -0.6748782 1.633642 -0.39824834
422 -0.029087124 0.052805 0.9142913 -1.9574888 0.046146728 -2.0221114 -0.15918043 -0.65256256 1.444036 -0.76255155
429 0.23662165 0.47308105 1.3330137 -1.8508958 -0.13274628 -2.079764 0.073157705 -0.375388 1.530854 -0.68917775
436 0.14151703 1.3088579 1.2963951 -2.1059628 -0.3868707 -1.6330565 0.5616747 -0.6341541 1.5178794 -0.44408417
520 0.0046458268 0.26687378 1.2959377 -1.8705238 -0.077608064 -2.1629083 -0.18305103 -0.5100758 1.6335974 -0.55393744
527 0.14699693 0.26082584 1.2265668 -2.0299191 -0.06411206 -1.9839367 -0.31480417 -0.6049987 1.6655622 -0.66527873
534 0.092226624 0.17074911 1.1772494 -1.672 -0.04838933 -2.1370752 -0.18406728 -0.47807118 1.5578934 -0.66240895
618 0.08632329 0.107190005 1.3056659 -1.8925785 -0.044438194 -2.3550715 -0.28277397 -0.5366459 1.5925508 -0.7134733
625 0.15611412 0.27350205 1.2178305 -1.6850122 -0.03341806 -2.0437455 0.06677171 -0.5038337 1.4268901 -0.32055098
632 0.06683074 0.40323678 1.2904675 -1.7267987 -0.11686212 -2.1820238 0.088083334 -0.5049635 1.5845127 -0.75441146
723 0.15208893 0.24687403 1.3145365 -1.9327736 -0.0059436536 -2.2576354 0.0028362097 -0.6075067 1.4752028 -0.7190915
730 0.023651097 0.25071266 1.080924 -1.7774947 -0.024112042 -2.0277312 0.11604845 -0.57034755 1.5970899 -0.5590812
821 0.079393774 0.13603938 1.1425604 -2.0595615 0.012103809 -2.1397743 0.018293204 -0.6926734 1.6874418 -0.5121295
828 -0.034148157 0.34499827 1.4650666 -1.7677608 -0.08988819 -2.135657 0.039576907 -0.4460725 1.5314828 -0.62873924
835 0.32499543 1.3175985 1.140697 -2.1838307 -0.29165834 -1.7103345 0.6582109 -0.69174635 1.3540387 -0.49669233
926 0.06505386 0.08728009 1.1850027 -1.7700394 0.006758258 -2.0458791 -0.01872107 -0.42541105 1.3939587 -0.56874883
933 0.050826848 1.0629078 1.2096803 -1.6312314 -0.260095 -1.5638354 0.05371819 -0.67364943 1.3821478 -0.41167864
1021 0.0070837797 0.054027926 0.91379935 -1.602774 0.121113665 -1.8966041 0.17308563 -0.6801567 1.3113793 -0.57412726
1028 -0.06254543 0.24741644 0.89794827 -1.5764674 0.050418567 -1.782633 0.16535185 -0.53824997 1.3937509 -0.60350627
1119 -0.25053176 -0.12989129 1.1583894 -1.8169769 0.16666415 -2.0328412 -0.007034653 -0.36393657 1.4077928 -0.63992697
1126 0.12431239 0.10287279 1.1412809 -1.8905966 0.11037382 -2.2632911 0.06324859 -0.64284486 1.2922044 -0.4809705
1133 0.28894705 1.0509629 1.0231109 -2.1025739 -0.19315466 -1.6682607 0.42597237 -0.6023647 1.240965 -0.5150898
1224 0.25212798 -0.09866756 0.9179556 -1.7295512 0.0012994427 -2.0102806 -0.19742873 -0.63273 1.2990718 -0.563347
1231 0.17526494 -0.112055205 1.0142497 -1.6485267 0.057425685 -2.1092165 -0.10366302 -0.61035764 1.0513004 -0.29691365
126 0.11779512 0.27403083 1.2977386 -2.0877686 -0.00057139416 -2.5120037 -0.032340523 -0.50301814 1.5463431 -0.8056774
1322 0.24712873 0.21682395 1.0271665 -1.8641031 0.051122777 -2.3373103 -0.3101496 -0.27575508 1.0607281 -0.721848
133 0.0725141 0.36386395 1.1777804 -1.7807643 -0.044671588 -2.0146215 0.15493082 -0.5003254 1.4792796 -0.5623324
1427 0.07836406 0.15305427 0.94862235 -1.8309808 0.034893148 -2.1721952 -0.006299917 -0.74598265 1.106664 -0.69721055
224 0.2573268 -0.0032331564 1.0833181 -1.9589779 -0.07924554 -1.8942165 -0.0073362878 -0.62253654 1.5964595 -0.61513835
231 0.26226532 0.317256 1.3344109 -1.7827668 -0.109149374 -2.1176612 -0.09204885 -0.5256747 1.5414361 -0.7002612
322 -0.067700215 0.23225233 1.2631944 -1.9074142 -0.0351835 -2.076698 -0.1611375 -0.3618612 1.4344528 -0.66477686
329 -0.11714121 0.26961815 1.1960579 -1.9076545 0.052893177 -2.086257 -0.0065076407 -0.5021543 1.5818571 -0.50824785
33 0.028435547 0.045183174 1.2098151 -2.0423813 0.07919903 -2.290771 -0.232595 -0.52642745 1.5301131 -0.5765135
336 0.037670754 0.2525074 1.0441769 -1.7844 0.066889666 -1.9735328 -0.016075768 -0.3393577 1.4138768 -0.5074499
420 0.19290146 0.272266 1.1932256 -1.8066347 -0.19990568 -2.0184102 -0.1359753 -0.5063717 1.7426744 -0.74839956
427 0.03589296 0.20857723 1.3409249 -1.6631334 -0.02515198 -1.9059272 -0.02937165 -0.64287555 1.4581004 -0.43694964
434 -0.08493182 0.21086468 1.3995212 -1.8221387 -0.11746653 -2.232599 -0.34835857 -0.50147957 1.6019584 -0.5210036
518 -0.13386442 0.183866 1.1494564 -1.839549 0.058676858 -2.1336932 -0.26160342 -0.37246856 1.5649232 -0.52927
525 -0.063532904 0.22729674 1.229592 -1.9927105 0.07420785 -2.0391476 0.0354543 -0.57246566 1.6468632 -0.5017762
532 0.3039677 0.3159834 1.2194135 -1.7552538 -0.16468742 -2.0512805 0.016128588 -0.4484414 1.6522783 -0.5810728
623 0.3807501 0.46332213 1.3431635 -1.552508 -0.24699788 -2.0977352 0.13079166 -0.5235757 1.383186 -0.5278995
630 0.14551319 0.36779284 1.4401193 -1.8855996 0.0010857121 -2.2106972 -0.052181628 -0.44626406 1.5795105 -0.37825382
721 0.009266082 0.2657459 1.0722343 -1.8868748 0.012884837 -1.864842 0.111295395 -0.50576574 1.5309085 -0.7461121
728 0.061694093 0.46988666 1.3103304 -1.6834832 -0.13388377 -1.9582756 -0.117996715 -0.45770958 1.3152611 -0.5950846
735 0.28631032 1.0567615 1.2574791 -2.0637264 -0.21651731 -1.7048217 0.46046397 -0.6519858 1.3646677 -0.4008695
826 0.061042853 0.45624804 1.1924405 -1.7833239 -0.027684575 -1.871854 -0.30533674 -0.2961498 1.497125 -0.42700452
833 0.044657964 0.23811339 1.1357881 -1.8331434 0.015769199 -1.9426736 -0.08445768 -0.42450222 1.5381037 -0.54193217
924 0.09225832 0.18738961 1.0781518 -1.5079504 0.033487964 -2.134826 -0.22892076 -0.6039919 1.1738855 -0.45593777
931 0.30145407 0.5295947 1.1466662 -1.6680384 -0.1339348 -1.921963 -0.019915367 -0.38419732 1.6024401 -0.5195002
1019 -0.025054848 0.25788254 1.2039065 -2.0657017 0.041011024 -2.0481486 -0.11922779 -0.5797058 1.5211421 -0.6534448
1026 -0.05945244 0.09301869 1.1370962 -1.80806 0.088262565 -1.8832991 0.008470648 -0.628874 1.0290968 -0.5032454
1033 0.4069121 0.4518731 0.76042986 -1.7384208 -0.0013452903 -1.6883619 0.22357683 -0.6216121 1.1591456 -0.42554834
1124 0.1337707 0.18200164 1.2191572 -1.5417236 0.04257969 -2.1603148 -0.0037015236 -0.46785122 1.0458342 -0.43140185
1131 0.08578114 0.29010248 1.1810161 -1.7639122 0.05141135 -1.9930156 0.08148639 -0.3847469 1.2681892 -0.5444374
1222 0.23525476 0.061319303 0.78440195 -1.8563143 0.088541895 -2.1972005 0.16628297 -0.46372345 1.1995233 -0.5595218
124 0.34277204 0.21368404 1.1716223 -1.9289724 -0.12593086 -2.2256382 -0.147264 -0.4550105 1.6960987 -0.59710836
131 0.0770737 0.5501503 1.3335894 -1.503403 -0.2036243 -1.8566346 -0.06803044 -0.28799587 1.6436709 -0.47632232
1320 0.10007233 0.041071527 1.1913643 -1.9483179 -0.05938481 -2.0964868 -0.08262929 -0.6506285 1.7332141 -0.58882403
1327 0.024700793 -0.13459958 1.4062287 -2.0069869 0.13390249 -2.1922345 -0.19337292 -0.6689726 1.2788736 -0.48263505
1425 0.17042029 0.27608386 0.89881766 -1.6756196 0.10503503 -2.0615697 -0.16420095 -0.20922506 1.1016264 -0.48658335
1432 0.006329739 -0.30403554 0.7381693 -1.6099197 0.1357006 -1.5906196 0.06482442 -0.61890674 0.95323056 -0.21054703
215 -0.321344 -0.093767166 0.994488 -1.717001 0.009817443 -1.7427481 -0.2659379 -0.966226 1.1977006 -0.63634956
222 -0.014929012 -0.122915946 1.0323329 -1.7184411 -0.02688091 -1.9170256 -0.08774897 -0.46257284 1.3165753 -0.57868963
229 0.14092383 0.45119524 1.3505745 -1.8039428 -0.112926394 -1.9689339 -0.22210908 -0.33702916 1.5423691 -0.52890635
236 0.18794782 0.38005805 1.2950928 -1.7268156 -0.04384854 -2.0512908 -0.04427592 -0.31253186 1.5168566 -0.6102158
31 0.05070488 0.32726827 1.2877309 -1.8561103 0.045458354 -2.0860596 0.015523301 -0.34455618 1.7346119 -0.5807656
320 -0.044881564 -0.010974084 1.1137649 -1.6781727 0.003942783 -2.0538237 -0.28306234 -0.62866503 1.3720863 -0.4953482
327 -0.08124702 0.3111062 1.2368962 -1.6541529 -0.04934086 -1.9360443 0.15539202 -0.40379193 1.564284 -0.5947564
334 0.18598263 0.20316836 1.3443608 -1.7377981 -0.1122615 -2.0275505 0.07290547 -0.78681505 1.3317263 -0.52984494
418 0.03263141 0.17435251 1.1779524 -1.9485505 0.032080855 -2.1681454 -0.14617099 -0.5727387 1.4466512 -0.6684145
425 0.050925616 0.14530925 1.2714378 -1.6625481 -0.07422559 -1.9118913 0.013714349 -0.6377103 1.4905281 -0.65415597
432 0.08398133 0.28983384 1.3945206 -1.8263574 -0.10444628 -1.9992796 0.05971803 -0.47915775 1.6501794 -0.62530726
523 -0.07202019 0.0884065 1.2164388 -1.8162088 0.013984549 -2.128177 -0.111305505 -0.54987866 1.6625147 -0.4755729
530 0.005050241 0.1737631 1.2853863 -1.665145 -0.053950228 -2.05307 -0.051604353 -0.5350126 1.4995049 -0.51630163
621 0.03697209 0.25935054 1.3318805 -1.9329098 -0.09304988 -1.86023 -0.04667324 -0.60640126 1.5885212 -0.7369884
628 0.13401297 -0.032583654 1.077184 -1.7519419 -0.01209138 -2.2439077 -0.09470896 -0.7191791 1.6840128 -0.62239856
635 0.30335608 1.2052166 1.1185185 -1.9960909 -0.32299545 -1.7158524 0.6114239 -0.7876475 1.3672115 -0.30135548
719 0.15149647 0.097313285 1.0793414 -1.7084041 -0.024485962 -2.106032 -0.0026204558 -0.5501043 1.4319845 -0.47633907
726 0.13924594 0.46014184 1.5323635 -1.8682767 -0.20048612 -2.03563 -0.10242147 -0.5149822 1.521711 -0.5508907
733 0.148451 0.21072266 1.2170184 -1.8311849 -0.029488225 -2.129283 -0.0035453779 -0.46335304 1.3207577 -0.49836785
824 0.11995771 0.25123024 1.1570076 -1.6817696 -0.053237915 -2.2050662 0.17520891 -0.67264014 1.4579997 -0.69932723
922 0.2282249 0.440005 1.4458619 -1.6698518 -0.21089642 -1.889314 -0.06072172 -0.6046042 1.319727 -0.24455819
929 0.31655544 0.28748062 1.2161683 -1.976003 -0.09240856 -2.2214148 0.057664394 -0.37502426 1.6778432 -0.61946154
1031 0.10638659 0.15417595 1.0822208 -1.4139454 -0.05339206 -1.9666203 0.047648177 -0.6452078 1.438267 -0.40538922
1122 0.08369594 -0.071164005 1.063904 -1.9071097 0.16783391 -2.2809377 -0.040103097 -0.35896784 1.2992706 -0.57133275
1220 0.172414 0.30527753 1.4249992 -1.9998575 -0.11645736 -2.383775 -0.14845818 -0.54325986 1.5434612 -0.640453
1227 0.20565522 0.07190568 1.1091918 -1.8493626 -0.022384191 -2.186957 -0.1656874 -0.53541 1.6244675 -0.5173857
129 0.032743413 0.47663817 1.0572708 -1.6105263 -0.1471045 -1.923405 -0.14654762 -0.38122866 1.6514227 -0.55517435
1325 0.097232096 -0.064009994 0.81613934 -1.7414138 0.1276191 -2.2073925 -0.0366246 -0.458294 1.2466015 -0.66835785
1332 -0.033467464 -0.097454526 1.1308595 -1.7910887 0.1273466 -1.8642098 0.08529892 -0.6929089 1.0388107 -0.22683765
1423 -0.08515098 -0.22159186 0.76638174 -1.7318081 0.18440022 -2.0113976 -0.009926541 -0.611065 0.8749765 -0.27941257
1430 0.06097184 0.09011482 1.2354538 -1.7461416 0.013306888 -2.1823938 -0.12896173 -0.35274544 1.1260642 -0.5432961
227 0.11373498 0.3445666 1.2814661 -1.8461287 -0.0636073 -2.0430562 0.03859937 -0.46974644 1.4746165 -0.5982312
234 0.06016921 0.25220814 1.2930399 -1.822016 -0.06732449 -2.004289 -0.019797616 -0.44135943 1.6699305 -0.6049862
29 0.0984647 0.16071509 1.0876282 -2.0047498 -0.028399428 -2.2367089 -0.19094546 -0.539645 1.7443047 -0.64500713
318 0.101954915 -0.013113749 1.123574 -1.7703768 -0.06336811 -2.1024985 -0.024060313 -0.51762843 1.5780847 -0.6293525
325 -0.039855864 0.12155611 0.9541128 -1.8156091 0.036895964 -1.9145948 -0.12384982 -0.49036878 1.5029798 -0.5321892
332 0.15640326 0.31893536 1.1764845 -1.7882895 -0.16836202 -2.0301104 -0.23830275 -0.50242597 1.8836306 -0.5056087
423 -0.07353006 0.23158978 1.1347288 -1.794158 0.044165123 -2.0585263 0.07897563 -0.48381394 1.5360215 -0.7541526
430 -0.08257718 0.19614658 1.2186135 -1.835686 0.05063805 -1.9989201 -0.1666553 -0.54417574 1.264174 -0.54026884
437 0.4015441 1.2808479 1.049354 -1.9839209 -0.32004753 -1.6167535 0.53414464 -0.52636373 1.3426156 -0.5554126
521 0.062865935 0.1487094 1.48561 -2.0944147 -0.074775204 -2.1311805 0.011136853 -0.81093556 1.5959915 -0.61528563
528 0.04738372 0.34149435 1.2390417 -1.7326994 -0.019553317 -1.975171 0.09753917 -0.62506306 1.4010184 -0.4039553
535 0.17898841 0.48336348 1.2175738 -1.8739922 -0.06191349 -2.064859 -0.07077669 -0.35032123 1.5835795 -0.6568839
619 0.059888333 0.1766858 1.0920601 -1.8018371 0.007459888 -2.1362762 -0.18345085 -0.5398848 1.504467 -0.57686985
626 0.042482704 0.5241035 1.2784225 -2.0399938 -0.045017958 -2.0269222 0.043549437 -0.54100466 1.6011561 -0.74303466
633 -0.14759389 0.3098965 1.2073841 -1.8601722 0.06176357 -1.9485701 0.07357357 -0.5369042 1.5362325 -0.69328856
724 0.1008084 0.19102922 1.1401165 -1.8801129 0.050918873 -1.9324863 -0.011216361 -0.48279062 1.5363306 -0.691283
731 0.26353443 0.54896027 1.2070222 -2.0908427 -0.09382641 -2.0223672 -0.0012633498 -0.43399253 1.5988022 -0.74968463
822 0.15294428 0.081359364 1.3870549 -1.807378 -0.09374088 -2.0201778 -0.18314518 -0.4452503 1.8841484 -0.27085283
829 -0.08146122 0.19971994 0.96246356 -1.7406611 0.05314428 -1.8764449 0.027252762 -0.68084294 1.5496774 -0.6128357
920 -0.118597485 0.24853997 1.1319128 -1.6300311 -0.04412799 -1.8112885 -0.10314919 -0.7070381 1.3441482 -0.5426113
927 0.2938898 0.31592155 0.9379787 -1.6356388 0.012772912 -2.021801 0.07808852 -0.5187488 1.0854722 -0.48779967
934 0.39807162 1.254839 1.0210418 -2.0003774 -0.3403038 -1.7485477 0.670001 -0.5418489 1.4110844 -0.54915005
1022 -0.2299778 -0.22520036 0.83625364 -1.7256039 0.14136882 -1.8466018 -0.09794412 -0.83265 1.3054512 -0.37954515
1029 -0.14869806 0.171145 0.9674701 -1.7352904 0.16470212 -1.8173491 -0.10783508 -0.4783192 1.2385017 -0.42723027
1120 0.042474948 0.33458775 1.1718946 -1.9313946 -0.081494235 -2.1005664 -0.24593356 -0.63746613 1.5255076 -0.55825555
1127 0.22790246 0.06649935 1.1578233 -1.8888944 0.0025459686 -2.1426227 -0.10852847 -0.4595909 1.2860222 -0.68371236
1134 0.24994025 1.0111107 1.0023583 -1.8496174 -0.07379749 -1.705484 0.4487255 -0.5719576 0.9612183 -0.23425248
1218 0.08055718 0.2558065 1.0785797 -1.8201356 0.076039046 -2.153919 -0.13981368 -0.41525835 1.2228292 -0.49952304
1225 0.0930547 0.08338094 1.0227269 -1.8017483 0.10491562 -2.1933925 -0.010626531 -0.5408222 1.2636088 -0.61081356
1232 -0.094910026 0.020665383 1.1059157 -1.5149127 -0.013710615 -2.2598891 -0.12538081 -0.36815166 1.3724425 -0.61519355
127 0.07507617 0.29915914 1.4082083 -1.9334326 -0.013255892 -1.8479578 -0.058679905 -0.45167613 1.3366969 -0.36839676
1323 -0.037807647 0.029028196 1.0377537 -1.8629235 0.13888465 -1.8682531 -0.04393516 -0.5554192 1.1591543 -0.308109
1330 0.109082125 -0.16240866 1.2457358 -1.789738 0.022913467 -2.2707517 -0.264858 -0.50614256 1.212496 -0.36394417
134 0.14282873 0.41532376 1.4554366 -1.8733429 -0.20260614 -2.1727774 -0.034443825 -0.36636874 1.6939198 -0.71361655
1421 -0.06201145 -0.06672297 1.0282626 -1.6174867 0.16836615 -2.1966217 -0.26257735 -0.26294312 1.0999547 -0.28150105
1428 0.13275708 0.0098437155 0.9820463 -1.5279803 0.068658955 -2.3203135 -0.020695442 -0.6049297 1.031896 -0.5380528
225 0.06732318 0.21004358 1.3563831 -2.1161156 -0.05633234 -2.328234 -0.03391897 -0.4589272 1.6524404 -0.72131497
232 0.08907704 0.32742754 1.2339628 -1.9969012 -0.031861786 -2.164916 -0.1531759 -0.6035448 1.5095836 -0.6257514
323 0.252958 0.19673888 1.3097183 -1.8601682 -0.044418734 -2.2007592 -0.1469233 -0.38068333 1.6489488 -0.47720093
330 -0.0016202468 0.14757513 1.3637863 -1.8575443 -0.061299 -2.170257 -0.07555628 -0.37728935 1.5595738 -0.68590504
337 0.33620492 1.1654432 1.0425872 -2.1058526 -0.29210928 -1.5391515 0.45593196 -0.79199874 1.4297754 -0.3646854
421 -0.13568321 0.110790394 0.7770537 -1.5727386 0.12166605 -2.1715255 -0.019520225 -0.31410342 1.5816063 -0.58184844
428 0.32848457 0.23089427 1.1750518 -1.9997897 -0.055433493 -2.1855278 -0.13186297 -0.40199646 1.6421508 -0.5394028
435 0.2378919 0.31418404 1.4053317 -1.7130288 -0.124463394 -2.0226367 -0.15226835 -0.61922634 1.6457943 -0.3247265
519 0.0012505606 0.10979629 1.2694075 -2.0072405 -0.043293037 -2.2087488 -0.08139166 -0.7538479 1.7160888 -0.6740944
526 0.06764116 0.3418059 1.2657326 -2.0246725 0.0077056736 -2.2357204 -0.16838281 -0.3834484 1.6195568 -0.8907944
533 -0.12869397 0.4464313 1.1996013 -1.732283 -0.013010655 -2.060715 -0.0364593 -0.65292174 1.3426443 -0.69127595
624 0.12345013 0.35354656 1.33548 -2.0638978 -0.02609269 -1.9605886 -0.14938338 -0.60960686 1.5858321 -0.4672278
631 0.049482662 0.2613053 1.1716629 -1.6676154 0.09137738 -2.046407 -0.08354956 -0.20558554 1.2996812 -0.26710847
722 0.07237366 0.32699454 1.1847271 -1.8076134 0.0018469096 -1.9726459 0.07149889 -0.55214626 1.5151372 -0.41405466
729 0.009150745 0.37867168 1.2606748 -2.0119066 -0.058771797 -2.0927312 0.15005003 -0.6959803 1.690047 -0.7444736
820 0.010826687 0.34630325 1.0333894 -1.8496085 0.041339543 -1.8543043 -0.10388953 -0.47037807 1.5389394 -0.45045137
827 0.06404211 0.3918279 1.2601368 -1.8690692 -0.09988829 -1.9488498 0.03037033 -0.31688523 1.6439171 -0.49736717
834 0.3364559 0.8382312 1.2567757 -1.7610558 -0.13619815 -1.8904306 0.22643198 -0.4402014 1.3717014 -0.44378096
925 -0.04883893 0.19714081 0.7827552 -1.6042362 0.12601471 -1.9464134 0.07426353 -0.5190336 1.0558913 -0.5914999
932 0.091976054 0.4260889 1.0852818 -1.7132504 -0.055641007 -1.8668126 0.10074963 -0.43697459 1.2014161 -0.6565286
1045 0.673295 1.834371 1.2488534 -1.8622063 -0.90344745 -1.3720156 1.1734735 -0.49101508 1.0737773 -0.27924
1150 0.23929094 1.8725983 1.2996701 -1.5447401 -0.9021023 -1.1805384 1.0385141 -0.31975135 1.1912149 0.1336286
1248 0.24783447 2.0098522 1.4426421 -1.8588467 -0.84206223 -1.3284048 1.1458185 -0.39381585 1.1451259 0.019303685
948 0.5803551 1.4158171 1.3072869 -1.5564458 -0.81328315 -1.2002289 1.3116375 -0.43098283 0.81881094 0.1403803
1050 0.43214765 1.8671926 1.3430347 -1.7427437 -0.96445805 -1.2185698 1.0658369 -0.39042118 1.1334609 0.06513656
1148 0.34358662 1.9519622 1.4797318 -1.774983 -0.969779 -1.366243 1.0523324 -0.3530445 1.1079689 -0.08832757
1246 0.40942097 1.8008739 1.2026198 -1.8806373 -0.7887976 -1.1900698 0.92629594 -0.4726394 0.97404975 -0.20818973
1351 0.51548153 1.7788255 1.5287553 -1.5887923 -1.0169127 -1.3469068 1.0502329 -0.36721456 1.203296 0.06945642
1449 0.3671713 1.9547989 1.4638842 -1.6354977 -0.9797833 -1.2894353 1.074081 -0.23313616 1.1006361 0.0370251
743 0.40094092 1.7384166 1.2617075 -1.8356067 -0.78197575 -1.1365471 0.9391838 -0.39772478 1.0779433 -0.08760875
848 0.27139366 1.5170438 0.8529843 -0.9081172 -0.9314314 -0.75332963 0.99115247 -0.39297387 0.9890029 0.10142952
946 0.37270394 1.7684604 1.2819928 -1.9710934 -0.72408974 -1.3259653 0.9398759 -0.4903478 1.0392532 -0.18679877
1048 0.26077625 1.9702832 1.4069151 -1.8415493 -0.97680026 -1.2861887 1.3001493 -0.40515873 1.3626822 0.07812684
1146 0.5461631 1.9119062 1.1316054 -1.88975 -0.8315217 -1.3520663 1.0662216 -0.47648984 0.9582729 -0.35371843
1251 0.2774581 1.690382 1.2528448 -1.3521118 -0.95465827 -1.1009074 1.0385547 -0.33942205 1.0731192 0.024701783
1349 0.3120236 1.8753651 1.6362432 -1.7280973 -1.0697502 -1.2802022 1.2607834 -0.28458336 1.3285471 0.100414805
748 0.46663448 1.2798628 1.1240656 -1.157464 -0.88070136 -1.0312166 1.3014374 -0.45877028 0.7649739 0.3608091
846 0.26816198 1.7335498 1.0469309 -1.4856513 -0.8618829 -0.851837 0.82931787 -0.28127253 1.1631469 -0.07822622
1046 0.31895047 1.9785235 1.2106097 -2.0527902 -0.8296411 -1.3090886 1.0633229 -0.53051275 1.1668135 -0.2167343
1151 0.34877822 1.8131328 1.4319032 -1.5602167 -1.0035361 -1.0843283 1.0119274 -0.20263384 1.243734 0.07776094
1249 0.41250286 2.003457 1.5722526 -1.9862638 -1.074167 -1.3428752 1.2104799 -0.44920596 1.2629606 -0.0027021316
1347 0.61655724 2.070242 1.3818873 -1.6926603 -0.97713417 -1.3659266 0.9737967 -0.36369297 0.880693 -0.085492015
746 0.460976 1.5328417 1.1994715 -1.8440005 -0.77573735 -1.0223327 1.1945736 -0.53354424 1.0719892 0.07810538
949 0.30376053 1.9251225 1.4219844 -1.6824479 -0.9424631 -1.2412207 0.9575025 -0.32469645 1.2037548 0.08741297
1149 0.21531755 1.9208231 1.5265718 -1.7428493 -0.98302597 -1.352284 1.1854606 -0.43067482 1.1522855 -0.0014932399
1247 0.45329574 1.9218309 1.3727249 -1.3550938 -1.0238153 -1.4351274 1.0472827 -0.17379053 0.81826514 -0.29680192
1450 0.36885694 1.7091885 1.5050552 -1.6488925 -0.951467 -1.2369246 1.0771179 -0.4047648 1.159685 -0.021271104
744 0.47204167 1.4551921 1.1811794 -1.8508657 -0.7180072 -1.1603862 1.2812095 -0.54119325 1.0571917 0.0605691
849 0.044995803 1.6784582 1.3055842 -0.8701036 -1.1134571 -0.83920974 0.9435416 -0.15257299 1.4369347 0.19509444
947 0.3197566 1.9460891 1.2762965 -1.7382617 -0.8901995 -1.2257462 1.1775291 -0.43941775 0.98973787 0.08717291
1049 0.3673657 1.7976936 1.4839532 -1.8162801 -0.9444524 -1.2485657 1.2068717 -0.33916482 1.0919966 -0.035261363
1147 0.71336836 1.9353472 1.1779957 -1.4921368 -1.1731328 -1.2811549 1.2754315 -0.23359257 0.7218253 -0.18693052
1350 0.31514364 1.7055763 1.4627981 -1.6750058 -0.8984745 -1.1856772 1.1251652 -0.27290362 1.1559172 0.06934875
1448 0.6143344 1.9049286 1.3205928 -1.4205781 -1.0626746 -1.2393451 0.9931275 -0.11141499 0.9137483 -0.24993451
644 0.49061146 1.5269035 1.1198306 -1.7777388 -0.76321715 -1.1324359 1.1754075 -0.48945892 1.0925177 -0.023004925
847 0.42214152 1.5722476 1.0426872 -1.2271862 -0.98060584 -0.90464836 1.1219393 -0.38628393 0.90262693 0.13420437
945 0.3444233 1.789507 1.3550053 -1.8891822 -0.85757935 -1.2500033 0.95775557 -0.44963416 1.1471833 -0.120699175
1047 0.3432995 1.702776 1.131951 -1.858468 -0.7348216 -1.1223946 0.96629375 -0.29890656 1.202047 -0.16040124
1145 0.4137122 1.653572 1.0944211 -1.8318774 -0.67107654 -1.2745347 1.019482 -0.3771709 1.1006091 -0.32710505
1250 0.3480851 2.259837 1.4701896 -1.9583985 -1.0647403 -1.4183048 1.1410668 -0.32875192 1.124451 -0.090958
1348 0.526019 1.8757731 1.3744878 -1.4362544 -1.0563866 -1.3517363 1.0311928 -0.23294023 0.70813495 -0.21243694
747 0.55520976 1.2724103 1.1186441 -1.63166 -0.7704875 -1.0726973 1.2879529 -0.59352016 0.83070016 0.11447226
950 0.12089808 1.7459189 1.0310961 -1.1033787 -1.0218488 -0.752884 0.7756346 -0.30368584 1.0945433 0.028320009
1535 0.21883704 -0.42631045 -0.26505458 -1.350926 -0.7375884 -1.5641193 0.0802835 -0.064319804 -1.261364 1.0184546
1540 0.17576802 0.3589718 0.7511509 -0.8535063 -0.26617387 -0.86142856 0.056066107 -0.10589224 0.51830864 -0.2891038
34 0.031168278 0.9053352 0.617776 -0.8431093 -0.49849778 -0.49458027 0.60429364 -0.24553627 0.36841792 0.032437023
49 0.21154268 0.66261995 0.425212 -0.72190416 -0.43516588 -0.4404792 0.6407933 -0.28012016 0.40614796 -0.02415408
157 0.35555956 0.46201205 0.36882246 -0.8740422 -0.6932496 -0.65002453 1.2762817 -0.64664066 0.3572337 0.36887276
255 0.060727708 -0.2111326 0.3207848 -0.5679978 -0.64249206 -0.82468444 1.2330546 -0.46228898 0.09166889 0.3954955
353 0.3515601 -0.016487915 0.33050758 -0.87679034 -0.6012881 -0.76582426 1.3220209 -0.66897964 0.6135107 0.35872993
451 0.0625462 -0.23406653 0.35732463 -0.60394996 -0.7753922 -0.8812575 1.4096229 -0.60642743 0.28931472 0.67385375
549 0.30550122 1.6247782 0.9915532 -1.7161254 -0.75320894 -1.1506135 1.4095963 -0.81124663 0.90100807 0.2125937
556 0.25045577 0.17320248 0.28073418 -0.89160633 -0.5727931 -0.69180524 1.2455039 -0.5780481 0.32725537 0.37063554
57 0.5372051 0.5925042 0.6337979 -0.8240273 -0.83290386 -0.61701316 1.0186079 -0.52208686 0.35834733 0.26684913
647 0.56953317 1.4103142 0.76508427 -1.2982668 -0.88157827 -1.0253874 1.6161906 -0.5490017 0.34402055 0.2571915
654 0.10502368 0.0968764 0.27954638 -0.6888864 -0.5664781 -0.77906865 1.3544649 -0.43935096 0.18481857 0.36418864
752 0.28071237 1.0279094 0.0429461 -0.18363206 -1.1912465 -0.49153844 0.73172325 -0.2856796 0.3728977 0.3854028
850 0.1808026 1.645516 0.60900676 -0.85209423 -1.0635829 -0.5759884 0.95567304 -0.42497575 0.75387233 0.22307822
155 0.14173512 -0.053320065 0.23365235 -0.4860298 -0.697375 -0.62861675 1.2467992 -0.50070554 0.6105353 0.37185872
253 0.25935745 -0.07986696 0.31987157 -0.7316112 -0.7647326 -0.8474926 1.3480616 -0.7517123 -0.006051396 0.4745289
351 0.385443 -0.10717389 0.49087262 -0.79821527 -0.7175743 -0.9345497 1.2254858 -0.5480042 -0.08482065 0.21679443
449 -0.045500994 0.047433738 0.18153134 -0.5405961 -0.6399825 -0.6801602 1.3243016 -0.6282723 0.0968348 0.25151476
456 0.29178908 0.58476675 0.24204126 -0.6928279 -0.691043 -0.6388293 1.0388117 -0.5045068 0.5374263 0.06779948
55 0.35558346 0.21755168 0.78110224 -0.8690945 -0.7363715 -0.7267528 1.3244393 -0.61475796 0.1824393 0.31302583
554 0.17981912 -0.090563156 0.51257485 -0.6788313 -0.68932146 -0.97715414 1.114646 -0.9218391 0.035555217 0.24445139
652 0.13667576 0.00930832 0.09909581 -0.48799685 -0.6383287 -0.8726148 1.2013075 -0.5810829 0.33836985 0.5844444
750 0.17088367 1.6007093 0.7539704 -1.06009 -0.91663516 -0.73480153 0.9035951 -0.44932902 1.0320835 0.19408602
153 0.28132734 0.1835593 0.61843115 -0.90093774 -0.5854739 -0.86008 1.3526826 -0.6713354 0.40512222 0.30043852
251 0.3805263 0.5618855 0.47220388 -0.75236815 -0.77996314 -0.72436327 1.1512542 -0.64496005 0.41290113 0.3341554
356 0.23832908 0.3988933 0.16518275 -0.6196337 -0.8139004 -0.48757297 1.3324103 -0.4880006 0.5636065 0.004425588
454 0.36897802 -0.0284549 0.38887993 -0.64954394 -0.7236848 -0.80650914 1.0982893 -0.6443114 0.21251056 0.35903016
53 0.3850292 0.63342786 0.53762513 -0.9646203 -0.8075333 -0.60634947 1.2989756 -0.6720088 0.24218544 0.196473
552 0.35020378 -0.025189074 0.28932816 -0.82881176 -0.71679485 -0.918692 1.4217494 -0.6625906 0.091493785 0.25303912
650 0.34784952 1.6301947 0.5959983 -0.9367631 -1.0363108 -0.75500387 1.1004922 -0.5661614 0.6397906 0.18836667
755 0.5081633 1.3738818 0.690563 -1.8041642 -0.4814476 -1.2499475 1.2889585 -0.5794026 0.74187946 -0.03000211
853 0.31493127 1.5953604 0.62688607 -1.2464379 -0.8372443 -0.81703925 0.92649716 -0.3723609 0.97628057 -0.02615673
151 0.13356186 0.21310586 0.20370235 -0.48896512 -0.714362 -0.36980978 0.9876218 -0.18771365 0.10839582 0.08670289
256 0.18544175 0.18045966 0.1908152 -0.594622 -0.62509096 -0.5862971 1.0839657 -0.5131086 0.18762548 0.24008317
354 0.40213597 0.023794925 0.33948097 -0.74968505 -0.7931547 -0.7843917 1.3698589 -0.7097032 0.24197307 0.33974844
452 0.10767983 -0.18031685 0.09080371 -0.44414595 -0.6907759 -0.95056784 1.2858526 -0.6116622 0.1955891 0.3127656
51 0.4055086 0.37989488 0.38680765 -0.91676265 -0.6498276 -0.76268655 1.3062199 -0.6182959 0.30467385 0.45575297
550 0.17734736 -0.12308744 0.0802508 -0.9280301 -0.6026058 -0.7718558 1.3113141 -0.7792289 0.43630007 0.26087222
648 0.59035236 1.4855231 0.88196623 -1.6337149 -0.84094554 -1.0339909 1.4992907 -0.7483727 0.6719651 0.47155175
655 0.16497463 0.32283136 0.50196075 -0.5931557 -0.8051152 -0.63480854 1.2357546 -0.6863864 0.096965834 0.27164096
753 0.30531856 1.4630241 0.6595637 -1.2613459 -0.7531082 -0.6405441 0.98036283 -0.49953878 0.764688 0.0016194041
851 0.32024273 1.2575271 0.5836089 -0.5956453 -1.0964698 -0.6053429 0.95812094 -0.37168184 0.8784245 0.2962405
156 0.44867322 0.41890216 0.6681785 -0.950768 -0.72731715 -0.7432514 1.3952588 -0.5460557 0.5087794 0.3978766
254 0.3514495 -0.0976113 0.47819546 -0.7456461 -0.6481804 -0.87152505 1.3031864 -0.71746826 0.40746623 0.45404753
352 0.38237044 0.083026774 0.37297666 -0.7776325 -0.78614885 -1.0463755 1.6665787 -0.73701155 0.31140143 0.5086045
450 0.2609739 -0.1478024 0.37433103 -0.68567073 -0.82680976 -0.83690315 1.2359403 -0.6728472 0.0029134708 0.6357477
548 0.20536652 1.5850267 0.6394926 -1.117968 -0.9189756 -0.6020924 1.1890564 -0.49206364 0.8179623 0.23245147
555 0.38227418 0.42687163 0.3814829 -0.6670855 -0.6961254 -0.86359084 1.0515598 -0.6363731 0.1825283 0.3808186
56 0.26243153 0.59282345 0.6530651 -0.843662 -0.62518007 -0.6663324 1.0737407 -0.40156227 0.38634914 0.5724542
646 0.37755695 1.7462828 0.65551853 -1.7331636 -0.6861196 -0.95722264 1.0851891 -0.30242506 0.45582807 0.008548442
653 0.32049257 -0.26829764 0.34114686 -0.60410506 -0.8182047 -1.0660238 1.5878243 -0.6991292 0.19951202 0.48151284
751 0.29674494 0.84947747 -0.024388997 -0.1364515 -1.0849483 -0.56112975 0.92855483 -0.34788495 0.651346 0.40704155
154 0.21099839 0.19973825 0.41629604 -0.7648771 -0.7349554 -0.7560034 1.457399 -0.49376997 0.20918436 0.09636899
252 0.3673336 0.28139576 0.31342974 -0.5713753 -0.8583389 -0.53526616 1.258908 -0.43669572 0.43406343 -0.061968807
350 0.29487574 -0.119553745 0.353743 -0.6854889 -0.7435592 -1.0691082 1.5741142 -0.75085336 0.22525585 0.511187
455 0.1479333 0.12626508 0.3158136 -0.91350764 -0.6959621 -0.7938534 1.2896886 -0.9582493 0.15462892 0.25472662
54 0.36799103 0.58368194 0.71033686 -0.93611985 -0.6969838 -0.7031952 1.3088772 -0.60528445 0.5392416 0.22816734
553 0.2108566 -0.11159887 0.14199123 -0.9188425 -0.69008917 -0.78487957 1.396345 -0.80825466 0.20440136 0.48797935
651 0.18773668 1.2283441 0.38480017 -0.2782955 -1.1845338 -0.44185543 0.9145316 -0.44335768 0.31151038 0.28071693
749 0.37242463 1.5634619 1.0740826 -1.4332826 -0.9646411 -1.114834 1.6450776 -0.68582743 0.845692 0.40628654
152 -0.008121771 0.32317603 0.4003221 -0.6746651 -0.7257229 -0.6030574 1.1800203 -0.599802 0.28484 0.4251179
355 0.37425414 -0.08505845 0.50091285 -0.64459264 -0.8040768 -1.0166264 1.3098747 -0.7827067 0.21244977 0.5182715
453 0.045202356 -0.18494846 0.15468636 -0.6215388 -0.6188237 -0.7838721 1.0540547 -0.616007 0.103568174 0.25733548
52 0.41218245 0.30472213 0.64690644 -0.68992037 -0.88142484 -0.7557064 1.3762016 -0.75854874 0.326547 0.5097138
551 0.35789332 -0.081213154 0.06318886 -0.68819153 -0.8066187 -0.9288223 1.4851444 -0.68806076 -0.042795792 0.51894456
649 0.3938286 1.3600974 0.8746167 -1.5033852 -0.7102845 -1.087845 1.4976121 -0.76194334 0.76118094 0.29309368
754 0.7907837 1.4741743 0.7564942 -1.9480526 -0.8091497 -0.90394145 1.3008461 -0.5462724 0.9890601 0.050865136
852 0.23623277 1.7296919 0.6961874 -1.2572048 -1.0345997 -0.5831147 1.0125719 -0.5309288 0.9322754 0.061822433
50 -0.00837301 0.009250452 0.28862894 -0.50976866 -0.67688775 -0.56513405 0.7284339 -0.46499342 0.027303498 0.062023647
5337 0.21560688 -0.19724841 0.71652645 -0.8550088 -0.8225208 -0.94112194 1.6447687 -0.73251724 -0.08308783 0.75858647
5435 0.3871373 0.39314875 0.36992192 -0.8607864 -0.8824937 -0.8856613 1.809392 -0.8963037 0.13289493 0.64720064
5533 0.43307096 0.27926406 0.6714533 -1.1046875 -0.48489878 -1.264577 1.2724755 -0.612903 -0.11049437 0.7504623
5736 0.5271684 0.16990344 0.71072173 -0.8948293 -0.76579416 -0.95948935 1.3297175 -0.8045081 0.025956612 0.38543966
5834 0.35357368 0.2634646 0.38082457 -0.96450037 -0.7650591 -0.97488195 1.7738566 -0.7915961 0.17625533 0.5956964
5335 0.6085942 0.10278794 0.19196667 -0.98982006 -1.1145258 -1.0427592 1.8017066 -0.8257463 -0.25763538 1.0473714
5433 0.3108439 -0.14223175 0.2302767 -0.9941666 -0.71896833 -1.0562403 1.5184555 -0.7857247 -0.20038168 0.85028994
5538 0.16249442 0.48361903 0.33738464 -0.6871522 -0.82155025 -0.6355811 2.0739164 -0.52914745 0.6963218 0.3288765
5636 0.24571468 0.30552673 0.7808526 -0.7904296 -0.8128181 -0.79787785 1.4112726 -0.79512286 0.44795454 0.44362155
5734 0.14851846 0.27824023 0.13879144 -0.7942979 -0.74958324 -0.9220349 1.8565423 -0.70607954 0.28528237 0.4419702
5333 0.20033154 -0.26438087 0.16198832 -1.073836 -0.7138384 -1.0604146 1.6383983 -0.75878596 -0.13997495 0.780863
5438 0.5944894 0.27178165 0.30673775 -0.75256413 -0.94353515 -0.6933786 1.7029723 -0.6375841 0.05241341 0.2652551
5536 0.2943024 0.20077404 0.41394916 -1.0695693 -0.6620658 -1.0443476 1.7022569 -0.98829573 0.23758839 0.5612128
5634 0.40849942 0.21583824 0.62586373 -1.1862056 -0.81274784 -0.7405511 1.8834895 -0.7238605 0.29181203 0.6571997
5935 0.6032049 0.117571674 0.39381647 -1.0309458 -0.9654321 -0.8936562 1.8827415 -0.90126806 0.24191228 0.6927819
5436 0.5434097 0.49465674 0.71932286 -0.9261452 -0.960245 -1.0834405 1.9276139 -0.94386995 0.21300955 0.6579083
5534 0.36798993 0.44478574 0.33437836 -0.9509644 -0.68648225 -1.0988833 1.7617472 -0.9681764 0.40051427 0.6231491
5835 0.32366094 0.23683226 0.38506833 -0.91466486 -0.85034543 -1.0438622 1.704009 -0.9375725 0.043186676 0.6929757
5336 0.15054391 0.32766262 0.53794247 -1.0493722 -0.67730707 -0.8771601 1.8088944 -0.8885115 0.17775896 0.6318854
5434 0.22325478 0.3938105 0.5467304 -0.92353255 -0.82671916 -0.97654635 1.9270536 -0.7721156 0.268393 0.6244299
5637 0.5494239 0.04531376 0.54884684 -1.0799849 -0.6951923 -0.9778998 1.6259947 -0.78603756 0.10521138 0.56104887
5735 0.33628306 -0.100409225 0.5540863 -1.0398613 -0.80704415 -1.0279799 1.7779645 -0.97296506 0.12884337 0.65985566
5236 -0.043232415 0.17292711 0.77474135 -1.0194179 -0.6525939 -1.0949675 1.708297 -1.0277044 0.11297943 0.6856501
5334 0.22843519 0.055064972 0.38684294 -1.1398213 -0.8116612 -0.8822905 1.7969007 -0.93947226 -0.0044387113 0.79895896
5537 0.26944783 0.39586344 0.52175236 -0.95330524 -0.8496442 -1.0006585 1.8165716 -0.8704529 -0.06252316 0.38504493
5635 0.18627587 0.33119634 0.41593593 -0.9556635 -0.7144829 -1.0297573 1.7096897 -0.9068412 0.24734554 0.5594534
5733 0.42189506 0.20043464 0.50622195 -0.95990545 -0.5862108 -1.1756371 1.3112304 -0.73758674 -0.17748174 0.6526077
5936 0.3390443 0.50195396 0.39258435 -1.0093769 -0.7463343 -0.8519876 1.86542 -0.79150635 0.5694562 0.52536505
188 0.4955958 0.41625226 0.30757275 -1.1188803 -0.83615464 -1.0307958 1.9666185 -0.9207032 0.24401823 0.50647676
5437 0.34617504 0.16690694 0.44374076 -1.0352788 -0.7072085 -1.046401 1.8345379 -1.0534056 0.4737393 0.24041013
5535 0.37419748 0.2535098 0.44663283 -1.1381621 -0.6208904 -1.2005016 1.7358094 -0.9416966 0.22189781 0.44786385
5633 0.593844 0.43485725 0.29239175 -0.8050925 -0.6962476 -1.139399 1.118783 -0.68988097 -0.17307782 0.48504558
5836 0.6053971 0.35484093 0.4987203 -1.081051 -0.85627234 -0.81310856 1.6949891 -0.9202341 0.32527682 0.32935202
58 -0.063190326 -0.026299912 0.067042716 -0.49423745 -0.6363863 -0.29631367 0.6912326 -0.5390281 0.23964882 0.21387464
69 -0.35632634 1.0893594 -0.100509375 0.070223376 -1.5244837 -1.1627982 -0.5610042 0.51316607 2.1304712 1.190921
1069 -0.5227685 1.4154122 0.124782436 -0.2987311 -1.6259506 -1.5945145 -0.75580585 0.5677979 2.4536965 1.4965981
1167 -0.6888755 1.3004807 -0.07647629 -0.36913657 -1.8341798 -1.8563629 -0.80038124 0.6904552 3.1462681 1.8041192
1265 -0.6976124 1.5811523 -0.30822033 -0.35552213 -1.9794521 -1.9965651 -0.6289107 0.7705915 3.4469159 1.7795625
1370 -0.79799634 1.6198595 -0.21801537 -0.3501314 -2.1512203 -1.8676976 -0.86218977 0.79462487 3.3904438 1.6458592
1468 -0.72487414 1.558393 -0.10750625 -0.3569463 -1.8410908 -1.7861247 -0.5501944 0.78241515 3.0700946 1.7827522
1566 -0.7896564 1.5221248 -0.18390344 -0.2757323 -1.9091672 -1.6700379 -0.86669934 0.54301083 3.0816457 1.5496167
1067 -0.49720657 1.4406352 -0.04805926 -0.30817252 -1.809505 -2.0692432 -0.585236 0.7468119 3.2994082 1.6356568
1165 -0.30046332 1.2617176 -0.04377782 -0.3335041 -1.2697046 -1.4472698 -0.4329344 0.48729435 2.5620573 1.3798773
1270 -0.7241831 1.4910736 -0.35079086 -0.24278758 -1.8412852 -1.6887151 -0.662735 0.7481885 3.1276188 1.512353
1368 -0.6907668 1.5335815 -0.40691963 -0.2681773 -1.8587106 -1.787673 -0.61246043 0.5566061 3.1903024 1.7913847
1466 -0.7697901 1.5264027 -0.042791795 -0.12294718 -1.8505074 -2.0220811 -0.53829604 0.7403162 3.1033447 1.8363826
1571 -0.9774615 1.4973714 -0.12729159 0.046979573 -1.9147319 -1.4199102 -0.29804286 0.4020987 2.8633244 1.4329901
1669 -0.8301166 1.5406654 -0.32514387 -0.45926416 -1.822029 -1.5744654 -0.92626137 0.6207312 3.0900664 1.57227
3468 -0.6035642 0.82675713 0.88987947 -0.57868254 -1.0541492 -1.0355567 -1.0896271 0.00010680227 -0.17906702 0.52363694
1170 -0.62200534 1.4794137 -0.13555866 -0.31154042 -1.6868252 -1.4687207 -0.8452368 0.7080745 2.5895271 1.4795386
1268 -0.87120354 1.446496 -0.12575458 -0.13214804 -1.9876821 -1.9733347 -0.6146335 0.7118058 3.2074356 1.7646426
1366 -0.5417607 1.3309426 0.015581882 -0.104759715 -1.9519767 -2.1041737 -0.68422854 0.76403546 3.0373437 1.7072538
1464 -0.7406058 1.5524613 0.0421784 -0.2247639 -1.9321983 -2.0860186 -0.65425706 0.7329124 3.2523198 1.6239108
1471 -0.675623 1.2091014 -0.12578377 -0.3145552 -1.792187 -1.7456921 -0.76370096 0.80999446 3.0233815 1.8488432
1569 -0.8740041 1.4252161 -0.44671717 -0.39802742 -1.8252422 -1.509656 -0.7380586 0.75690085 3.1065142 1.7185113
968 -0.6555522 1.4272479 -0.03551442 -0.34465393 -1.4026488 -1.2870567 -0.61829025 0.4524116 2.3138173 1.2420493
1168 -0.6787873 1.3625244 0.0391466 -0.33986 -1.9321675 -1.9135035 -0.8278028 0.7508857 3.0402346 1.7519091
1266 -0.67256963 1.4685872 -0.09442601 -0.19813578 -1.9442004 -2.0338964 -0.812924 0.8998873 3.1681566 1.7176846
1364 -0.79366446 1.5287532 -0.21777916 -0.43547565 -1.7584436 -1.883756 -0.67676127 0.8376507 3.3697731 1.601438
1371 -0.7309092 1.6237341 -0.08430611 -0.3337792 -1.9714668 -2.1667175 -0.7745957 0.7486346 3.3866913 1.5938647
1469 -0.77627265 1.3971882 -0.13810408 -0.23743339 -1.9357551 -1.8657053 -0.6188057 0.68570685 3.288366 1.7412897
1567 -0.69605416 1.5423473 -0.30518588 -0.31383362 -1.980168 -1.8292458 -0.6961979 0.5848824 3.212716 1.938244
1068 -0.71810627 1.3300117 -0.22705734 -0.24990416 -1.8666455 -1.8700521 -0.7377181 0.68246144 3.2617662 1.5892606
1166 -0.6611827 1.5965697 -0.03471308 -0.28199258 -1.8172289 -1.8634073 -0.55221534 0.79468066 2.9598641 1.7113883
1264 -0.62939435 1.4484409 -0.23462118 -0.20960087 -1.8378979 -1.9343444 -0.58036804 0.619983 3.0931127 1.7072839
1369 -0.7668086 1.4642771 0.08403592 -0.21477015 -1.9366809 -2.0211668 -0.6648425 0.68596256 3.1545155 1.6605216
1467 -0.5502509 1.5083137 -0.21594015 -0.25453168 -1.9927179 -1.9601249 -0.61383325 0.86628526 3.3355553 1.8114525
1565 -0.53609425 1.6067921 -0.097369574 -0.32454476 -1.887724 -1.9407984 -0.69441265 0.7093556 3.0163374 1.663374
1670 -0.6552684 1.4356042 -0.21304597 -0.38084802 -1.8044579 -1.5647274 -0.77462906 0.6379127 2.9367893 1.617832
1066 -0.7634893 1.2117752 -0.2863921 -0.23812298 -1.7625614 -1.6978111 -0.79581463 0.69994384 3.02731 1.5807917
1164 -0.64329505 1.4751546 -0.08459878 -0.27276844 -1.857452 -1.8459011 -0.7009515 0.6894219 3.0727174 1.7157364
1269 -0.7342637 1.3834996 -0.1660042 -0.23647362 -1.8286055 -1.9345875 -0.9346022 0.6656378 3.0092149 1.7246287
1367 -0.71850085 1.5100131 -0.15720832 -0.25808996 -1.7602283 -1.9794735 -0.7171563 0.71764505 3.1173115 1.6224865
1465 -0.68011093 1.5122365 -0.10446166 -0.34157574 -1.801838 -1.8911068 -0.73368424 0.6321067 3.0640528 1.8082834
1570 -0.7800252 1.4720597 -0.36243382 -0.4222097 -1.8266939 -1.6761434 -0.8976557 0.76347005 3.0696287 1.5521549
969 -0.51676047 1.4357374 -0.065226674 -0.30178386 -1.619846 -1.5802284 -0.6873123 0.70856106 2.7905388 1.3255438
1169 -0.6939363 1.4177074 -0.13976564 -0.19322515 -1.9838152 -1.9801939 -0.80508953 0.7924663 3.199573 1.6862382
1267 -0.67174375 1.4875704 -0.20514414 -0.42815906 -1.8172886 -2.032262 -0.7258472 0.727031 3.2502832 1.9991959
1365 -0.5372802 1.517719 -0.12540425 -0.19797802 -1.7874436 -1.8068632 -0.55504817 0.66340435 2.9958313 1.6234113
1470 -0.8156662 1.4967382 -0.18996999 -0.27451956 -1.9657323 -1.9560006 -0.67798024 0.84041613 3.3213491 1.8443828
1568 -0.78073317 1.4800432 -0.30203408 -0.2150913 -1.9341031 -1.5866718 -0.7081149 0.68235844 3.0564005 1.5134141
967 -0.21329884 0.5885434 0.018965926 0.046500497 -0.8527292 -0.7647657 -0.33445728 0.16168652 1.0919807 0.7100101
70 -0.38669267 1.0392402 0.024417726 -0.035360046 -1.44585 -1.353341 -0.73536617 0.5116572 2.1319945 1.3344862
71 -0.17327371 0.8273852 0.084282964 -0.097459204 -1.0850697 -0.98400563 -0.46982613 0.29478616 1.5625373 1.1348938
2239 0.1348881 0.046067752 0.02208235 -0.7319412 -0.5216802 -0.69771475 -0.16512203 0.1480243 0.20911984 1.0481062
2337 -0.03840488 -0.03551577 0.033079814 -0.79158396 -0.3956825 -0.5400113 -0.07526317 0.09956623 0.068909384 0.76654047
2435 0.23439449 -0.3232687 -0.057274513 -0.6478761 -0.69253594 -0.6115054 0.928562 -0.8717243 0.2819364 0.31879297
2540 0.06256901 0.32619792 0.16764617 -0.24450327 -0.9528047 -0.29836524 -0.05215488 0.0636805 0.67652947 0.3291123
2638 -0.114719674 0.09244743 0.11719487 -0.22114709 -0.6528508 -0.36686417 0.044970937 0.08007025 0.3841235 0.17905444
68 -0.39378348 1.0146407 0.18519069 -0.21856104 -1.3728842 -0.45554796 -1.1070738 -0.11262482 0.91430235 0.7603911
2237 0.07938855 -0.21136855 0.081131086 -0.70401126 -0.4017374 -0.7609374 0.060279064 -0.11568398 0.026372394 0.8749771
2335 0.17976424 -0.18648978 -0.05214495 -0.626127 -0.8369386 -0.47305217 1.2071676 -0.6087744 0.35448083 0.71989346
2440 -0.08497765 0.34422535 0.21787411 -0.17410852 -1.0586793 -0.43606222 -0.35817912 0.13814174 0.90253365 0.4723352
2538 -0.23099232 0.5911004 0.0044335146 -0.11020031 -1.0378256 -0.34345558 -0.23434182 0.051137425 0.74128413 0.21359727
171 -0.003847632 0.6015136 -0.042999137 0.021453418 -1.088045 -1.1772293 -0.42403463 0.265253 1.6498213 1.3523566
2235 0.2708823 -0.4488638 0.07473865 -0.5388847 -0.5982655 -0.7198353 1.1465911 -0.357208 0.6193106 0.35744995
2340 -0.13526976 0.07736593 -0.1582173 -0.6998458 -0.45285445 -0.70730835 -0.42722875 0.20306057 0.15975438 0.743035
2438 0.15362169 0.25875 0.042611808 -0.6489036 -0.5843158 -0.7108033 -0.20269677 0.09722176 0.17371696 0.69411206
2536 0.20734392 -0.2237337 -0.25893173 -0.41839385 -0.742098 -0.7746926 0.9525444 -0.68208355 0.4033657 0.5871675
169 -0.4752405 1.0040694 0.041227777 0.14539467 -1.5439469 -0.7003984 -0.59688663 0.014571344 1.4865011 0.6502714
2240 -0.073514216 -0.06703052 -0.21598396 -0.6685706 -0.54157877 -0.42960942 -0.1291646 0.22690381 0.06543583 0.6542311
2338 0.04149903 -0.14649828 -0.10010584 -0.67305946 -0.48970214 -0.64431006 -0.4320323 0.06727146 0.14241755 0.8462242
2436 -0.16860244 -0.080205224 0.29296905 -0.6194717 -0.62857527 -0.7173177 1.2331204 -0.63970405 0.23712522 0.77117807
2639 -0.16857396 0.30109453 0.1570811 -0.1829032 -0.98520654 -0.27109084 -0.5057291 0.2533061 0.48571566 0.35786834
2238 0.07421291 -0.34795114 0.09901385 -0.8671849 -0.48554075 -0.6903145 -0.1741821 -0.067584425 0.21807137 1.188311
2336 -0.16943106 0.27289158 0.07463605 -0.20553005 -0.9080192 -0.31562242 -0.17039564 0.061219893 0.57328165 0.52366066
2539 -0.034803778 0.6642261 0.13106798 -0.1888164 -1.0820817 -0.3412687 -0.17906192 0.08646639 0.71565676 0.2807886
2637 0.22016048 0.19777851 0.17145394 -0.2866559 -0.93961835 -0.41350034 -0.14154226 -0.085427724 0.57025796 0.4798644
2236 0.08751397 -0.3355198 0.28166068 -0.57989043 -0.5366105 -0.766239 0.8047672 -0.41242886 0.20679204 0.5695185
2439 0.10214223 -0.17137475 -0.46902114 -0.82122755 -0.44439456 -0.79357404 -0.20584089 0.29759422 -0.15945186 0.509583
2537 -0.15383247 0.38987952 0.15287916 -0.23922853 -0.9189876 -0.36803737 -0.46864098 0.21184188 0.77707165 0.3762117
72 -0.0982126 0.6134309 -0.040098753 0.0006215805 -1.1636566 -1.0776418 -0.38674006 0.39728767 1.6685196 1.3385237
170 -0.34427923 1.0471674 -0.21938379 0.04404849 -1.4656088 -1.4217193 -0.5777292 0.5769165 2.1963737 1.2721385
2339 -0.030271353 -0.07924712 0.071131304 -0.57926667 -0.45665193 -0.67229354 -0.13324806 -0.08451098 0.60159105 0.71885204
2437 0.074379 -0.38978288 0.029730653 -0.876531 -0.33649006 -0.7986207 -0.37823537 0.25322247 0.2465295 0.6320929
73 -0.08741706 0.18889834 -0.01664087 -0.25453004 -0.49013662 -0.43072096 -0.21348625 0.2374934 0.5333479 0.60083795
74 0.11491068 -0.23791167 -0.02309481 -0.46226868 -0.48060077 -0.65559554 0.3431979 -0.04823998 -0.05758579 0.47191983
75 -0.25084656 -0.013240949 0.07046941 -0.10634918 -0.43292326 -0.6481198 -0.033540566 0.024905754 0.37035772 0.33414567
76 0.057055995 0.1845619 0.11917629 -0.2879803 -0.448819 -0.48790872 -0.12576032 0.29175708 0.26660043 0.54083043
77 -0.21595302 0.13826248 0.17002887 -0.09152091 -0.60062486 -0.4342465 -0.107984975 0.14367986 0.8723876 0.48833194
78 0.008335629 0.059233006 -0.08887598 -0.07280467 -0.496402 -0.33822694 -0.033165067 0.010317527 0.20251253 0.16283444
79 -0.012717993 0.24201593 0.13144207 -0.07718922 -0.5298272 -0.47256243 -0.22426373 0.08398735 0.67206776 0.52232164
80 -0.13700911 0.06926639 0.08312441 -0.20194648 -0.4040712 -0.36730915 0.004828024 -0.050340895 0.34969154 0.4068661
81 -0.44154134 0.4417362 -0.25078097 0.38454387 -1.3421712 -1.4406371 -1.0748804 -0.074645646 1.278233 1.3777169
82 -0.4969075 0.39273927 -0.10643919 0.4726394 -1.3588663 -1.5954305 -1.0168153 -0.4528708 1.2178994 1.3338382
83 -0.06255615 0.2367087 0.019123515 -0.00908634 -0.5766142 -0.3673667 -0.1309296 0.16913635 0.50168055 0.42002207
84 -0.022371145 0.2815636 -0.0889977 -0.04823963 -0.56294435 -0.5353469 -0.33846676 0.05656136 0.78629786 0.38932163
85 -0.25689864 0.46229506 0.167415 0.05887959 -0.7613987 -0.6276483 -0.3521875 0.13606697 1.0517359 0.6397054
86 -0.0670935 0.32538188 -0.021764925 0.14992777 -0.50520146 -0.53749084 -0.16837554 0.01212624 0.4531125 0.26909235
87 -0.2176621 0.37861556 0.14822707 0.12615152 -0.7148308 -0.6523278 -0.22827065 0.1753618 0.8820736 0.5765603
91 -0.05972984 -0.082286015 -0.06289922 -0.13497551 -0.55530536 -0.15215747 0.048200633 0.20492646 0.2607362 -0.22848107
1486 -0.19025218 0.18152171 -0.08196781 -0.20242603 -0.63043827 -0.3766979 0.07119231 -0.022368198 0.2825355 0.03370656
1584 -0.18245849 0.0683599 0.016253898 -0.14655554 -0.76143295 -0.37803853 0.07377594 -0.03619366 0.22993283 -0.07779551
1787 -0.9238506 0.9375288 -0.63657725 -0.40812933 -1.8653345 0.27943867 -0.6745949 -0.0843298 0.5813723 0.8308987
1885 -0.49723476 0.15275109 -0.37191638 0.4088796 -1.887911 -0.033411726 0.5258601 0.51458615 0.75042266 -0.4608299
1484 -0.12907808 -0.007144558 0.0009318113 -0.16947621 -0.47619826 -0.35300955 0.05817163 -0.022972668 0.16761947 0.0500963
1687 -1.0688193 0.94491583 -0.6816381 -0.564538 -1.8438592 0.36957693 -0.7629192 -0.145888 0.6565949 0.76359737
1785 -0.23363881 -0.22063416 -0.30413687 0.27531737 -1.4737298 -0.15292504 0.5492842 0.60945547 0.6153945 -0.37212083
1587 -0.032929327 0.0673787 -0.030716067 -0.20688397 -0.3908653 -0.18426725 0.058865853 -0.010421539 0.093903854 -0.045947526
1685 -0.1713789 0.06724703 -0.1322185 -0.19177586 -0.7281146 -0.33118153 0.045366086 -0.010769767 0.18490395 0.03511736
1783 -0.30413917 -0.18400505 -0.4834815 0.54739976 -1.8871262 -0.274949 0.91035116 0.54073644 0.48454827 -0.28982982
1585 -0.115502946 0.10350396 0.07478109 -0.1992493 -0.742909 -0.38464493 0.08629661 -0.078602426 0.15842319 0.15822072
1683 -0.13037261 0.015756477 0.02088668 -0.21316198 -0.7053503 -0.34773168 0.042413034 -0.18180424 0.1971 0.049286276
1886 -0.7923622 0.3170805 -0.4366108 0.56692684 -2.134293 -0.1342226 0.95830953 0.5825462 0.4190738 -0.04620834
1485 -0.17510156 0.09902353 0.009971916 -0.1781534 -0.6493209 -0.35823983 0.053633418 -0.01635422 0.21635285 -0.047186244
1583 -0.098048955 0.09315327 -0.09490351 -0.19806685 -0.6522151 -0.3048994 0.026375027 -0.005306552 0.1290964 -0.02163223
1688 -1.0437136 0.8167462 -0.37996623 -0.39007714 -1.882167 0.41824627 -0.6852361 -0.1968818 0.8283883 0.47717342
1786 -0.34502015 -0.06396071 -0.18325196 -0.10501279 -0.87294585 -0.25321072 0.10785142 0.0002805819 0.24781622 0.19276169
1588 -0.9241076 0.9552189 -0.65274197 -0.54619426 -1.7522347 0.2864857 -0.68654436 -0.11238143 0.6634745 0.7554338
1686 -0.030789185 0.030966869 0.0898342 -0.20215979 -0.46459785 -0.14152198 0.07018183 0.008424917 0.10917071 -0.04172117
1784 -0.6846748 0.3191118 -0.26555136 0.60095626 -1.9865372 -0.28389657 0.8853122 0.6357425 0.52800846 -0.19112651
1586 -0.13857037 0.057595976 0.0015468886 -0.20222886 -0.49072382 -0.16663419 -0.066159785 0.010748487 0.15582693 0.038831096
1684 -0.19382113 -0.026989114 -0.02939543 -0.068585545 -0.82757854 -0.35204095 0.108494945 -0.013496455 0.30428198 0.04779083
1887 -0.97895336 0.7817742 -0.5662746 -0.3201322 -2.0906138 0.3704088 -0.65256405 -0.29904267 0.55068684 0.5021974
92 -0.2007325 -0.050341573 -0.25051185 -0.029489923 -0.67291915 -0.18438718 0.2736557 0.022660179 0.11342593 0.0213158
93 -0.092603564 0.0031433192 -0.17641741 -0.26689547 -0.37176564 -0.15485585 0.11791696 0.09070434 0.17437768 -0.06564644
94 -0.19862668 0.004575068 -0.20800734 -0.07398411 -0.9436027 -0.1410191 0.07674681 0.30464745 0.38782135 0.03654411
95 -0.28365272 0.25415787 -0.26543987 -0.36604258 -0.9208285 0.088864304 -0.30451852 -0.024972832 0.4160139 0.08765049
96 -0.09605682 0.052698396 -0.1512753 -0.031669166 -0.7122795 -0.16399635 0.19405505 0.06846792 0.1911242 -0.05451943
97 -0.29811272 0.13881694 -0.18858884 -0.1784856 -0.88214105 -0.06811038 -0.3022293 0.10395921 0.40020445 -0.013354227
98 -0.46676403 0.37137133 -0.22761506 -0.15174925 -0.80151564 -0.12660971 0.024706278 0.11371054 0.41212577 0.12017986
99 -0.2026839 0.3587806 -0.2193253 -0.29901314 -0.7473106 -0.1089058 -0.2947023 0.038584292 0.2774125 0.085989915
100 -0.10701347 0.16667655 0.03534204 -0.08082716 -0.5993362 -0.13803962 0.05540738 0.1609345 0.21017021 -0.080432355
111 -1.187283 -0.18534623 -0.36732912 -1.5455405 0.120924234 -0.87789994 -0.40610588 -0.72632146 0.40220147 -0.38167447
136 0.07291823 0.9272923 0.49622026 -0.6856899 -0.48109064 -0.4876375 0.5689532 -0.13565767 0.48809758 0.08293328
140 0.25234023 2.110547 1.0783823 -2.1095402 -0.86532766 -1.3134651 1.2409824 -0.47354457 1.3124133 -0.0051359874
1044 0.2993801 1.9609858 0.9573071 -2.121031 -0.8278536 -1.1469164 1.0993999 -0.5387888 1.066849 -0.19921361
1240 0.5002136 1.8717753 0.885421 -2.0370522 -0.7742706 -1.3236401 1.1941981 -0.4786887 0.96000636 -0.13589548
1345 0.53028756 1.9685917 0.97380066 -2.1464765 -0.78992707 -1.2448211 1.2512138 -0.4369012 0.6641691 -0.2778939
1443 0.47649238 2.0933394 0.77020884 -2.1519117 -0.8358299 -1.1678714 1.1062533 -0.457419 1.1293874 -0.33962676
842 0.3910847 1.8527304 1.0485024 -2.01009 -0.8151659 -1.1922753 1.2132576 -0.5961602 0.88514966 -0.016474945
940 0.5216931 2.1557782 0.9257306 -2.2610686 -0.94617754 -1.384144 1.248537 -0.634044 1.167845 -0.28180578
1042 0.29694128 1.9692067 1.0547532 -2.121002 -0.8641009 -1.3187838 1.0437213 -0.6143218 1.1208483 -0.29801923
1140 0.5419927 2.087615 0.9257031 -2.2214997 -0.9131915 -1.2778481 1.3046923 -0.49029377 1.0909674 -0.24760327
1245 0.59432954 1.9670154 0.9398557 -1.8842045 -0.9700205 -1.1815541 1.093202 -0.50790066 0.86362255 -0.41049948
1343 0.53235674 2.05757 0.91704094 -2.1222177 -0.9641082 -1.1996022 1.2080717 -0.51340306 0.9520668 -0.38613194
1441 0.59657824 1.8867161 0.89581335 -1.9873357 -0.78013843 -1.233292 1.0164964 -0.4121743 0.6700576 -0.24424928
448 0.09446386 1.7974565 0.60110205 -0.81118596 -1.0092509 -0.7388608 0.69444674 -0.07629201 1.0076506 0.07191987
546 0.3907986 1.9497238 0.9647187 -2.15711 -0.7611837 -1.1964059 1.081149 -0.46415427 1.0675712 -0.29862964
742 0.478153 2.0522912 0.9455641 -2.1440675 -0.87356454 -1.3437134 1.091176 -0.6038413 1.1159271 -0.2438446
1040 0.496411 2.0666962 1.0279828 -2.165903 -0.98865867 -1.2583882 1.4362497 -0.55411595 1.1050507 -0.07152288
1243 0.45468596 1.9792268 0.92305315 -1.9436268 -0.8267107 -1.270633 1.0553557 -0.50578845 0.89857835 -0.35385707
1341 0.5794087 1.9043306 0.8214425 -2.285544 -0.7871933 -1.0219564 0.9583389 -0.4711261 0.9203588 -0.32748967
348 0.2371315 2.3261566 1.1249566 -1.8999704 -1.0660316 -1.2526481 1.212968 -0.45739362 0.9129922 -0.05648997
544 0.3566113 2.0744846 1.0379701 -2.3320532 -0.8626604 -1.3562814 1.1200362 -0.64972526 1.370665 -0.38307407
642 0.5136197 2.0308669 0.92588174 -2.003885 -0.810987 -1.3652934 1.1969984 -0.47112414 0.9578059 -0.010197694
845 0.20575961 2.03865 0.67095685 -1.3478315 -1.0086204 -0.8618227 0.88891405 -0.5241195 0.8790989 -0.11773853
943 0.5161503 2.0663836 1.0896319 -2.2771344 -0.94130033 -1.3284523 1.3133801 -0.49267185 1.2152011 -0.057937887
1241 0.4249806 1.819477 0.9474325 -2.0273898 -0.92175627 -1.0405953 1.3814132 -0.6517799 0.8986495 -0.25409716
1346 0.5370135 1.9915375 0.94724643 -2.1282377 -0.858568 -1.2710533 1.0808047 -0.64907604 1.0535375 -0.49582663
1444 0.44789463 1.9590437 1.106198 -2.079421 -0.8155276 -1.3478593 1.0260794 -0.55406284 0.9952294 -0.26478136
745 0.459864 2.018696 0.96885943 -2.3006158 -0.8133517 -1.3734682 1.2372118 -0.5882782 1.1796172 -0.31661254
843 0.4756029 2.0162227 0.9707018 -2.1648426 -0.7937565 -1.2367034 1.2294558 -0.42279872 1.1359465 -0.22199228
941 0.47683576 2.1221945 1.0409805 -2.2481148 -1.0122023 -1.0934906 1.206504 -0.48136535 1.0163262 -0.20694514
1043 0.32252064 1.9931623 1.1700703 -1.9677238 -0.9099852 -1.2599707 1.1903096 -0.53753686 0.91826695 -0.15990947
1141 0.47908095 2.0080395 1.1169362 -2.157164 -0.9689151 -1.3662226 1.3397347 -0.59182084 1.2367824 -0.23835148
1239 0.4647 1.9507995 1.0708312 -2.2387233 -0.8185903 -1.3121864 1.1143373 -0.5662982 1.0732845 0.027248867
1344 0.5026292 1.7772015 0.99164736 -1.8369989 -0.7932232 -1.2780075 1.287806 -0.29497892 0.9132333 -0.30840942
1442 0.44729125 1.8944038 0.98141277 -2.134084 -0.8459456 -1.1532161 1.1658915 -0.53217727 1.036879 -0.30182204
547 0.23653711 2.1395652 1.3446738 -1.9348927 -0.9485258 -1.2722276 1.1813926 -0.41487166 0.9625036 -0.12623577
645 0.35137922 1.9754328 1.0101908 -2.1767702 -0.83965415 -1.2639024 1.0923312 -0.6064496 1.1286243 -0.3756565
841 0.5987312 2.1137207 0.905106 -2.4564316 -0.9611812 -1.3224603 1.31328 -0.53521985 1.1588972 -0.25135666
1041 0.429128 1.8183882 1.0005431 -2.2181883 -0.73624074 -1.3083997 1.2379254 -0.6533188 0.9300334 -0.15400074
1139 0.5577008 1.838928 0.93673486 -2.050092 -0.81583434 -1.2828276 1.0458173 -0.6036606 0.91587645 -0.121178746
1244 0.325735 2.1181886 0.79059666 -2.2714856 -0.72322816 -1.2998284 1.1914651 -0.56192213 0.9838219 -0.33389935
1342 0.4001691 2.0372295 1.1759983 -2.0351732 -0.909942 -1.2729008 1.1713048 -0.45282108 0.764066 -0.3150265
447 0.2599243 2.1591086 1.1523658 -1.8956662 -0.94907176 -1.2214973 1.2170638 -0.42780346 1.1854179 -0.14867857
545 0.28857693 2.0094805 1.1492658 -2.3409753 -0.7913122 -1.2706273 1.3021148 -0.61748815 1.3124326 -0.03950932
643 0.44266587 1.8956425 1.1552496 -2.107311 -0.83340997 -1.2782565 1.0753461 -0.4321799 1.1197364 -0.20249927
741 0.41255686 2.0322244 0.80836177 -1.9816521 -0.87878877 -1.2165006 1.0990391 -0.6294794 1.1731527 -0.08515525
944 0.31142524 1.9042035 1.103122 -2.1671662 -0.82991374 -1.178391 1.0154449 -0.639233 1.1744844 -0.21897072
1144 0.6113041 2.079349 1.0552666 -2.2140396 -0.92814994 -1.2538232 1.1874478 -0.46947247 0.84462273 -0.11114974
1242 0.30646214 1.8784221 0.97649825 -2.1196897 -0.72199667 -1.2893556 1.1619122 -0.52156585 1.1110779 -0.22179556
1340 0.43349618 2.0056727 0.8717793 -2.1093757 -0.8353721 -1.2969023 1.1937768 -0.620583 1.0067763 -0.13890316
347 0.26688525 2.2838192 1.1576787 -2.1261063 -0.99186075 -1.3131909 1.1254561 -0.7012562 1.004171 -0.29177758
543 0.5070451 1.856871 1.2711227 -1.94632 -0.9740366 -1.0940323 1.2006485 -0.5683878 0.96315485 -0.115364194
641 0.4812563 1.8716865 0.9417986 -2.0242941 -0.82112026 -1.3223786 1.2770764 -0.57861686 0.968829 -0.20675218
844 0.39420745 1.9283837 0.80263114 -1.4464835 -1.0552309 -0.8955517 1.0004766 -0.4489843 0.89491355 -0.28355518
942 0.28345576 2.0926406 0.8999204 -2.1248362 -0.9113078 -0.99676394 1.1494594 -0.48631072 1.2175753 -0.26237857
141 0.3013188 1.9915823 0.8155346 -1.9842889 -0.856051 -1.1334465 1.331957 -0.5191751 0.95629686 -0.05632027
149 0.20897986 0.092136994 0.34841183 -0.63157046 -0.61872935 -0.35962993 0.64640296 -0.30601245 0.29411286 0.15796657
150 0.017296057 0.4005386 0.56366605 -0.50027305 -0.60825104 -0.43015325 0.7155288 -0.3592438 0.40549418 0.1426281
158 0.07539172 0.06525354 0.2715388 -0.5395074 -0.5675676 -0.3837839 0.6274678 -0.31394473 0.4336919 0.22843318
159 0.23942211 0.13905102 0.42310727 -0.43522283 -0.5127405 -0.5285816 0.54749936 -0.31646034 0.35166904 0.19572702
172 0.14607935 0.03958129 -0.14553294 -0.29879582 -0.5456178 -0.58134884 0.07724788 -0.108644456 0.3355544 0.36530077
173 0.084488794 -0.17143643 0.19473603 -0.12836811 -0.5739344 -0.47116828 0.15998179 0.064805634 0.12744012 0.09764811
174 -0.29830134 0.33241156 0.19688377 0.2907493 -0.9120334 -0.456522 -0.08862865 0.06284166 0.6504114 0.45530328
2174 -0.86287594 1.7245659 0.10916402 0.12120837 -2.0048757 -0.48631564 0.20393372 0.007291759 1.8077383 0.68283594
2272 -1.4312115 1.9120499 0.27004024 0.46882716 -3.0085752 -0.81244814 0.4652208 0.20117258 2.5303426 0.80337137
2074 -1.509394 1.801202 0.16680403 0.5364206 -3.0896113 -0.7536153 0.36087468 0.045545056 2.3272674 0.943441
2172 -1.4349211 1.8087962 0.38603395 0.7023992 -3.2208593 -0.8895655 0.40755284 0.20695913 2.4852455 0.9570538
2375 -0.81453085 1.7906725 0.2530888 0.22697945 -2.0450318 -0.6398686 0.20795801 0.018264586 1.6408502 0.74480873
